34 500
34 0.17988794 0.15464973 0.23968449 -0.079173714 -0.14919464 -0.11468537 -0.08794885 0.23971094 -0.04316687 -0.08236137 0.08065092 -0.029392818 0.044059195 0.032544356 0.074835345 -0.0084780445 -0.11316858 -0.054027732 0.017574478 -0.10597317 -0.099485196 0.015513047 0.0008279729 0.041955307 -0.11189178 0.0018502581 0.06399462 0.0069043827 -0.044859365 0.028494835 0.07407932 -0.058581438 0.118559346 0.11391136 0.027440893 0.20128456 0.1774864 -0.08802675 -0.15265532 -0.09304556 -0.0969365 -0.042046797 -0.18649252 -0.041141603 -0.14864539 -0.08224592 -0.076537184 0.031856887 -0.066082 0.011088415 -0.03412811 -0.047585007 -0.1032753 -0.018089604 0.08882821 -0.041800663 -0.010435129 -0.15803519 -0.037382323 0.00041644942 -0.0052524987 -0.037114646 0.05218955 -0.106850624 -0.03639392 0.14522271 0.010837359 -0.086479954 -0.07108174 0.055905968 0.039529227 0.095742434 -0.058350094 -0.028248286 0.13650706 0.1365904 -0.051521607 -0.13855417 -0.0064390595 0.09412471 0.036721453 0.087228924 -0.003379669 0.120870024 -0.12700869 0.048706513 -0.014747178 0.15722007 0.10373229 -0.006339354 0.12827401 0.08909369 0.00758824 -0.0071184617 0.007447058 -0.0049149864 0.020309426 -0.019229377 -0.034489926 -0.12414724 -0.04601084 0.111290805 -0.06115427 0.10711357 0.03651785 -0.0066035343 0.07336473 0.14969184 -0.048604034 0.089062884 -0.039640047 -0.0421977 -0.021085376 0.09065235 -0.089995414 0.023668816 0.10560765 -0.1424668 3.189544e-05 -0.15550786 -0.040007044 0.01737585 0.1406274 -0.0810718 -0.034045186 -0.017245667 -0.23511522 0.058722753 -0.039415687 0.042755824 0.16623557 -0.043854125 0.011601967 0.01443109 0.036565773 0.124935076 0.053284083 -0.025123268 -0.1011994 -0.15592879 -0.03715466 -0.08475214 -0.01832513 -0.047545344 0.03878381 0.024318324 0.09835968 -0.04342098 0.07531839 0.099839814 -0.038309976 -0.1314293 0.023705723 0.06165098 -0.09979516 -0.006746295 0.06401889 -0.048034225 -0.19055337 0.09487908 -0.025571937 -0.014309311 0.053280517 -0.109079234 -0.0075022974 0.11628969 0.13587806 0.04723634 -0.02675313 0.059773188 0.022909319 0.13109723 0.029003238 0.16648865 -0.027417671 -0.11644768 -0.0048857895 0.045064334 0.007337262 0.045563515 -0.07030504 0.12349776 -0.054533698 0.003904804 -0.011038078 -0.096582636 -0.037747543 -0.043127887 0.052483078 0.10575545 0.11768472 -0.07403169 -0.05325503 0.00094365457 0.019208629 -0.07573828 0.019121677 -0.042984474 0.06297926 0.0611 -0.03177969 -0.08924217 0.08454361 -0.11180653 0.17810273 -0.013927901 0.08776187 0.023224095 -0.03225361 -0.055499375 -0.05448645 -0.059731986 -0.03423175 -0.030252278 -0.020875683 -0.09237624 0.06474466 0.040312745 -0.08829759 -0.103662014 -0.10385167 0.07307593 -0.038253598 -0.06638522 -0.0058848434 0.032819908 -0.013198734 -0.050245706 -0.1280882 0.12461909 0.06621976 -0.01882986 -0.09231303 -0.07814047 -0.14786701 -0.031480845 -0.1591513 -0.078869626 0.046338644 -0.010956806 0.07104067 -0.051923774 -0.0064158663 0.11773691 -0.02662102 -0.08670697 0.035201125 -0.1051939 -0.02310269 0.07710565 0.032153685 -0.0733572 0.11946192 -0.071641415 -0.11810626 -0.06864988 -0.06848578 0.12883809 -0.038048096 0.020552298 0.02181121 -0.06524061 0.073952086 0.062226847 0.05767354 0.095488004 0.08454926 0.13036887 -0.08176046 0.00788427 -0.0037318466 0.11826775 0.16006923 -0.14924693 0.013817175 0.050705425 0.118913926 -0.0994925 -0.09419914 0.023696443 -0.14097218 -0.058903545 -0.09665694 0.06453566 0.05876099 -0.089325145 0.15262248 0.008159096 0.05496012 0.077174455 -0.060671184 0.15941197 0.068908736 0.05343892 0.11011287 0.05527379 0.10839911 -0.018006727 0.10317659 -0.035187706 -0.134667 0.18045574 -0.07017865 -0.09685136 0.004840899 -0.08367048 -0.002671807 -0.026971048 -0.072221346 0.010825161 -0.002939215 -0.078933924 0.027177047 0.03323506 0.08743242 0.06263458 0.05985757 0.005237538 0.06210171 -0.17571817 0.16277379 -0.0467431 0.076643564 -0.024564639 -0.029455056 0.002530077 -0.010332062 -0.13490847 0.006154236 -0.013152688 0.25380608 -0.059575465 0.17356245 -0.029073238 0.0005738074 -0.041111138 -0.07476056 0.1648601 -0.007352443 -0.082074426 -0.065180674 0.049368367 0.114516586 -0.006461715 0.046664752 -0.0043160566 -0.01376657 -0.0072018434 -0.058452494 0.07640801 0.0012825701 -0.0028434373 -0.1191178 0.014589948 0.004129277 0.17133194 -0.058717262 -0.022021037 0.0057992414 -0.0461449 0.018717872 0.16961339 0.12972412 0.14215076 -0.0057239262 -0.066903315 0.097973555 0.13762167 0.016121367 0.09996334 0.0096732685 -0.10680861 -0.0050853994 0.16665739 -0.08326535 -0.033442724 -0.13262637 0.02331811 -0.15130396 -0.0056530875 0.035555597 -0.0065767122 -0.024702972 0.10924875 0.02517189 -0.051172517 0.18105558 0.072674 0.009954613 -0.07245402 0.02808417 0.015753845 -0.1399177 0.028411701 0.08364668 0.07712769 0.10926893 -0.11029964 -0.035767745 0.06307241 -0.025260583 0.042035893 -0.08531535 -0.043416306 0.037459042 -0.09010205 -0.0020263884 0.07967357 -0.06502781 -0.04583087 0.03262863 -0.07180126 -0.06462031 0.020499872 -0.020637652 0.11628153 0.1823049 -0.15197957 -0.07123708 -0.15440488 0.14233777 0.12204648 -0.08586164 -0.013161491 -0.051980127 0.1173279 -0.004988075 0.0036758694 0.038309332 0.0016351559 -0.19116428 0.11762177 -0.1328155 -0.035910726 -0.097400434 0.023895241 0.059868634 -0.0050566318 -0.059160702 0.09775148 -0.019640956 -0.07570136 0.11861019 0.034851562 0.09627755 0.030365156 -0.081731744 0.013919117 0.00722467 -0.03607551 0.057227153 0.09070918 0.109276734 -0.07525993 0.04807069 -0.22986506 0.014411985 0.081694864 0.025624782 0.017861303 -0.013182519 -0.13029853 0.123762116 0.026289957 -0.010109165 0.04657092 0.015817467 0.035236772 -0.14454183 0.035544477 -0.07202104 -0.16436261 -0.09037136 -0.12374116 -0.05151171 0.072940014 0.047247674 0.21189113 0.050160125 -0.1300444 -0.13639125 -0.023630416 -0.03706718 0.055292897 0.11827726 0.01908447 0.075841986 0.077824 0.06317593 -0.08737852 0.08252298 0.018894888 0.0050226296 0.07395044 0.04055538 0.031466957 0.02282061 0.07957068 -0.011333897 0.0804801
1 0.011385648 0.14200331 -0.007022515 -0.14227538 -0.061586432 -0.03948178 0.008607151 0.23310234 -0.01586692 -0.03504493 -0.028707929 0.0037402944 0.06869373 -0.039584976 0.030320033 -0.18942338 -0.14789204 -0.17557138 0.047718573 0.09407995 -0.12000891 -0.050239876 0.03062449 0.040434897 -0.023644898 -0.083314195 0.02232492 -0.009644177 -0.07374826 -0.04264056 0.11513971 -0.09749401 0.009687269 0.0339959 0.10993822 0.18385124 0.15398738 -0.01871946 0.008870045 -0.027570883 -0.0010951232 -0.101995386 -0.20455487 -0.05745432 -0.19749878 -0.08885121 0.0019392245 0.1058074 -0.05476714 -0.020156708 -0.003322184 -0.12412477 0.01748884 -0.024320107 0.034290522 0.04970144 0.087218955 -0.018692128 -0.07211004 -0.09301738 0.19591728 -0.05045253 0.20351313 -0.17003101 -0.09145312 0.08028192 0.015782552 -0.06809284 -0.12235911 0.030531945 0.07647668 0.0043782587 0.060567267 0.048364688 0.13122803 0.19379976 -0.12227869 -0.094230644 0.036956005 0.21613471 0.042191386 -0.059181627 -0.09091965 -0.043953445 -0.14143534 -0.025760802 -0.049554285 0.11870307 0.093804084 0.015695065 0.19979702 0.0772533 -0.0207208 -0.017347367 0.024028419 -0.13805635 0.025178107 -0.078824066 -0.13790618 -0.23834 -0.083581105 0.07811772 -0.03656124 0.0807848 0.023409864 0.037619308 -0.04132253 0.117269605 -0.028840385 0.14406307 0.05878022 -0.03182353 0.0388156 0.15511952 -0.021621663 -0.03512958 0.115527086 -0.10874304 0.059785385 -0.19456704 -0.06909913 0.030886382 0.09872044 -0.019384993 -0.036759436 -0.022998072 -0.23530418 -0.038379293 0.043722317 0.011628214 0.10918462 0.032236904 -0.13523765 -0.04284251 -0.03650754 0.044784363 -0.02249493 -0.18682778 -0.02996209 -0.28410977 -0.0283033 -0.06336405 0.016221717 -0.11198861 0.024554804 0.17693011 -0.021244306 -0.11664302 0.0028665483 0.019179925 0.0014184897 -0.016966194 -0.046352167 0.10677985 -0.11367803 -0.051169038 0.033479292 -0.0462279 -0.16034618 -0.034890503 -0.10196436 0.014344737 -0.077977434 -0.014120506 -0.06427373 0.034161396 -0.046281096 0.019190622 -0.0009835662 0.01790755 0.04142467 0.1255936 -0.025283335 0.09954847 -0.004955368 -0.17154251 0.014993526 0.11485623 -0.07141276 0.13455072 0.029673502 0.009186757 -0.09836174 0.071968675 -0.091208175 0.024984628 -0.024471616 -0.01643816 -0.012676785 0.049154505 0.086894155 -0.076194584 -0.10626327 0.049814332 0.05829848 0.005593362 0.01915436 -0.024967266 0.11156029 -0.029788665 0.075337216 -0.06294934 0.060775794 -0.022602964 0.1281508 -0.013854824 0.1515476 -0.00015248079 -0.080410935 -0.009085092 0.001164204 -0.00805227 0.097760044 -0.028238328 0.020663766 0.050903272 0.005125405 -0.043458037 -0.023809837 -0.11396751 -0.009744367 0.078805566 0.007742311 -0.12056154 0.060972914 0.025962394 0.050662685 -0.037122108 -0.08564943 0.12173108 -0.051786996 0.051461063 -0.024270102 -0.1685152 -0.0054852795 0.0743179 -0.16658732 -0.083517864 -0.066155806 -0.13167107 0.12698112 -0.14545633 0.047209878 0.11691215 0.094377324 -0.03355817 -0.120941 -0.0765999 -0.0050344416 0.07228525 -0.0016266536 -0.0045074252 0.08186843 0.08865696 -0.013731548 0.034643292 -0.034387898 0.11095083 -0.120167345 0.08585585 0.1116681 -0.10164469 -0.013716595 0.13490175 0.08931462 0.13673578 0.018703226 0.1547623 -0.09848367 0.06522082 -0.030750422 -0.0021685443 0.08528542 -0.11652086 0.057785515 -0.028654385 0.13137941 -0.20624872 -0.017084518 0.04597134 -0.08862371 -0.0028745746 -0.108380616 -0.11292908 0.009356489 -0.08235244 0.12879276 0.18618058 0.14041245 0.02799686 -0.050031353 0.07591283 -0.12514605 0.15189055 0.103383645 0.044864874 0.06799008 -0.036192 0.06592402 -0.093534045 -0.104944736 0.111436084 0.07917833 0.03390359 0.07038874 -0.17842445 -0.0016220476 -0.025679309 -0.023391198 0.030281708 -0.06406438 -0.11427081 0.100203134 0.16727814 0.13624205 0.075317964 -0.08748953 -0.0013655978 -0.101607874 -0.1423719 0.09088998 0.07199476 0.011267273 -0.16857314 -0.011360723 0.1058543 -0.03272912 -0.15712826 0.0042970404 -0.10623811 0.2562283 -0.08360971 0.13789849 0.075103946 -0.11335135 0.07754805 0.0068384195 0.21985033 0.051877353 -0.22298256 -0.015129772 0.14622729 -0.057484914 -0.03613576 0.021431696 -0.041545764 0.0072722514 0.1225351 -0.0719414 -0.03985926 0.043669816 -0.06934244 -0.0057246774 -0.014869404 0.018126901 0.13711472 -0.14134155 -0.063762866 -0.05501276 -0.110902205 -0.066290505 0.03542554 0.101835065 0.056658592 -0.028917465 0.0038296022 0.0073760445 0.068509355 -0.05088168 0.13285221 -0.051599152 0.06388399 0.05774005 0.091392696 -0.019812584 0.041197885 -0.1659046 -0.08292416 -0.14401655 -0.15953995 0.0787281 -0.11904782 0.01875169 0.06563776 -0.046081513 0.0694202 0.077512845 -0.08459167 -0.0024412235 0.021293165 0.027622124 0.07491587 -0.03405441 0.046528198 0.10072547 0.15211105 0.015179726 0.10485007 0.1010769 -0.03329082 -0.074959494 -0.03953731 -0.09734051 0.038482837 -0.13963738 -0.15532245 -0.077450745 0.07717709 -0.0069079176 -0.009061526 -0.06595999 -0.059187062 -0.0380611 -0.0044350973 0.015126672 0.15000242 0.015927676 -0.16802773 -0.06872999 -0.09639187 0.0020664225 0.11413755 -0.02189594 -0.06336724 -0.06248967 0.013898309 -0.012436489 -0.07152079 0.028017282 -0.10483065 -0.118193254 0.19316773 -0.033187065 0.03972724 -0.12991828 0.057204094 -0.030227277 -0.047155194 -0.014340096 0.10314075 0.09560182 0.0013548575 0.09882639 -0.113183744 0.14940988 0.011037726 -0.044253036 0.04660062 0.07524338 -0.0053481767 0.0926985 0.03333255 0.0054732296 0.07412055 0.06577236 -0.096410096 0.009710326 -0.0366524 0.09859566 0.035028197 0.036513407 0.022062223 0.06367771 0.018983932 0.0026944336 -0.012789939 -0.06355235 -0.063845575 -0.08141544 0.04224121 0.089341626 -0.052273933 -0.005581003 -0.11080488 0.036678985 0.10088634 0.09256568 -0.03808069 0.09177781 0.005432062 0.02000147 -0.109214105 -0.11421119 0.059680805 0.14060725 -0.11071684 0.003741275 0.08326468 0.027524846 0.109006956 0.0067296918 0.05247019 0.008311778 0.020310732 0.118073255 0.014957207 -0.10460663 0.0316093 -0.0027933787 0.056351766
33 0.18028933 0.15426531 0.25445372 -0.074730255 -0.14715108 -0.11000649 -0.08842756 0.21171919 -0.04164417 -0.08624056 0.082300924 -0.035868842 0.03742295 0.019064358 0.081534125 -0.0042034825 -0.117250025 -0.054235596 0.024547663 -0.115789145 -0.11134022 0.020054147 0.0054132547 0.043774843 -0.12199439 0.008506053 0.059337754 -0.0015866573 -0.03788991 0.036331646 0.064145796 -0.060405165 0.1250644 0.11229608 0.025489347 0.20132132 0.18236339 -0.08628314 -0.1598902 -0.0943291 -0.09696555 -0.046806697 -0.1938044 -0.038578596 -0.16160361 -0.09196429 -0.08338039 0.028793583 -0.06871727 0.0041726246 -0.034565836 -0.049123593 -0.11108306 -0.008904969 0.085519955 -0.04481079 -0.008299763 -0.17349294 -0.04104851 0.004987544 -0.019107757 -0.032079358 0.05634684 -0.104260035 -0.034837097 0.15099205 0.0020065224 -0.09425845 -0.0664998 0.042109407 0.041471522 0.112854645 -0.05626331 -0.02298734 0.1429755 0.14047837 -0.049213503 -0.14556697 -0.0088460585 0.09011418 0.033344552 0.09959809 0.009655981 0.1263787 -0.131595 0.045534972 -0.020837102 0.1704281 0.104099676 -0.0049672616 0.13215174 0.0934094 0.003783714 -0.0111453915 0.012868473 0.010567625 0.022617983 -0.027339028 -0.03530829 -0.13042611 -0.043231197 0.10984901 -0.05767766 0.116573915 0.03392242 -0.011374683 0.07881336 0.14614806 -0.0469248 0.07469081 -0.035991665 -0.04235747 -0.02022124 0.08585033 -0.09299644 0.022690335 0.10309097 -0.14180091 -0.0029624233 -0.15071242 -0.045868702 0.021963445 0.14293185 -0.087568514 -0.031948935 -0.009302779 -0.22421488 0.07555853 -0.044506323 0.044720545 0.1730622 -0.042277213 0.020876795 0.016030496 0.031726107 0.13124758 0.055181853 -0.030945612 -0.11759874 -0.16425347 -0.046015523 -0.08857147 -0.009095036 -0.04905469 0.040822644 0.015426283 0.095300764 -0.052357715 0.06599151 0.0894297 -0.0346125 -0.12948427 0.02638176 0.06323156 -0.103945084 -0.018387735 0.06132106 -0.046477646 -0.19073929 0.09612836 -0.01859354 -0.01915027 0.06259975 -0.113769084 -0.0058528176 0.11591405 0.13915509 0.045644622 -0.035158567 0.058307957 0.017844148 0.1410532 0.025688898 0.17202191 -0.016566724 -0.10083521 -0.009283531 0.04113329 0.006157933 0.036714192 -0.06472245 0.12882078 -0.04808015 -0.0063289017 -0.004945983 -0.093646176 -0.042643744 -0.047788616 0.050372805 0.10919218 0.1254883 -0.07289471 -0.05864038 -0.0033495964 0.023729172 -0.08735214 0.012178553 -0.050818365 0.063710764 0.06365679 -0.04090228 -0.09433202 0.08762759 -0.12112919 0.17768338 -0.013837103 0.07907256 0.0307667 -0.013260593 -0.06921821 -0.048705317 -0.055590317 -0.04993695 -0.03498406 -0.024632154 -0.0968738 0.07148256 0.044612803 -0.08141479 -0.10685272 -0.109739915 0.07062482 -0.047237437 -0.06307753 -0.009508678 0.037998628 -0.02339104 -0.0476983 -0.13653572 0.13315517 0.060423292 -0.021749472 -0.09808011 -0.08287222 -0.15108515 -0.041495938 -0.17070273 -0.092923135 0.049324125 -0.004634416 0.07933186 -0.05328395 -0.012111229 0.111602426 -0.026413878 -0.10224744 0.042259194 -0.10052812 -0.02039128 0.08655555 0.033575565 -0.07592527 0.13624014 -0.07494857 -0.12117277 -0.06665833 -0.07413402 0.13765101 -0.025800176 0.02589804 0.018674035 -0.06415682 0.07939083 0.06129435 0.063030824 0.105907366 0.09107929 0.13484286 -0.087654606 0.006631594 0.0013751963 0.12531126 0.16801046 -0.16075954 0.014119941 0.052081812 0.11450806 -0.100728735 -0.099473715 0.014224059 -0.15770468 -0.059665937 -0.10504001 0.08673285 0.06740279 -0.083458826 0.16948162 -0.0042798524 0.055120666 0.08370437 -0.059626963 0.16060978 0.07035258 0.052907787 0.112904094 0.057511915 0.11387937 -0.025100365 0.117783725 -0.037547234 -0.14354376 0.19305901 -0.086371414 -0.101490036 -0.0028756564 -0.08910429 -0.0042899484 -0.029617904 -0.086140275 0.01624604 -0.010655356 -0.077037066 0.023048557 0.030444521 0.1006254 0.06893932 0.06922379 0.004727226 0.07086496 -0.18930541 0.17391023 -0.0520507 0.09303145 -0.018981514 -0.017094038 -0.0003762093 -0.014245334 -0.14815375 0.009722623 -0.006692396 0.26101288 -0.06253468 0.17814451 -0.03486198 0.007902276 -0.045226984 -0.0834011 0.16981055 -0.008046906 -0.08225153 -0.073704645 0.039772004 0.123078786 -0.0012169323 0.047147837 -0.008280412 -0.021710897 -0.007592203 -0.06141581 0.07701476 0.0005577786 0.008363866 -0.12952752 0.011641431 0.0032951906 0.17315607 -0.047730383 -0.021065984 0.006689884 -0.04365465 0.013850834 0.17284922 0.1345786 0.15239665 -0.0043940376 -0.060986225 0.10431551 0.14236341 0.024363399 0.09423217 0.006808972 -0.11448224 -0.008882911 0.17650363 -0.08798196 -0.037258938 -0.13523556 0.029654473 -0.14681259 -0.0014705592 0.041319106 -0.013136019 -0.01518741 0.11453488 0.039055932 -0.048117302 0.18918806 0.07301893 0.012611287 -0.06715643 0.034504335 0.016778711 -0.14757128 0.022081537 0.092057824 0.075645715 0.12131501 -0.1271887 -0.046642747 0.0730716 -0.021504348 0.04466837 -0.08381207 -0.047265925 0.053206097 -0.094750546 0.0005893248 0.08735331 -0.062149752 -0.059708837 0.05374358 -0.08018199 -0.073019914 0.0144085195 -0.025188461 0.11767195 0.1991481 -0.16145611 -0.07145408 -0.158789 0.15680015 0.13441832 -0.10317341 -0.009163374 -0.053788863 0.12760259 -0.0106475325 0.007253561 0.04335819 0.004588836 -0.20242733 0.11693586 -0.14103231 -0.039803375 -0.111230224 0.024963573 0.07309991 0.0046931156 -0.05960705 0.09804881 -0.020250324 -0.08038518 0.13188455 0.04526005 0.09706929 0.03622872 -0.085991256 0.010848363 0.0013676842 -0.02482873 0.0429791 0.09946822 0.11441614 -0.083506696 0.062466223 -0.24744827 0.025119396 0.10042796 0.025503287 0.015171122 -0.027125664 -0.14254667 0.13595691 0.02612828 -0.024698803 0.051502224 0.015754163 0.035471838 -0.13572259 0.03389973 -0.07865224 -0.1750788 -0.09085107 -0.12356027 -0.055366248 0.06860512 0.048625845 0.22891618 0.042510744 -0.14147972 -0.13984063 -0.012805468 -0.03908422 0.063598976 0.1292191 0.03697006 0.080599636 0.08712679 0.067728266 -0.09815988 0.08434878 0.020129027 0.0045135664 0.091513515 0.040523887 0.036477882 0.020244496 0.09093264 -0.012418415 0.082639046
3 0.04539752 0.12670694 0.07148656 -0.04411035 -0.060218774 -0.039363973 -0.022525845 0.10884483 -0.022694275 -0.01599009 -0.049538393 -0.018104112 -0.002926325 -0.07674083 0.03157022 -0.119447224 -0.16450651 -0.096431114 0.06018354 -0.034991737 -0.14902546 0.022239445 0.022233203 0.04367429 -0.08930206 -0.0056791888 -0.008442173 0.0041999966 -0.046467833 -0.030706389 0.052095383 -0.07702156 0.06763897 0.008981958 0.054180004 0.16867037 0.145678 -0.046702515 -0.0186376 -0.055093627 -0.00523427 -0.072296955 -0.11589645 -0.070475034 -0.1684354 -0.08701163 -0.068980694 0.057875928 -0.014232135 -0.077304244 -0.03244277 -0.060911678 -0.014508949 0.01786187 0.043943584 0.02403645 0.054147534 -0.064879805 -0.07790394 -0.045129053 0.09030032 -0.008394147 0.11571079 -0.07116926 0.02376648 0.123018004 0.011128074 -0.08417271 -0.07247385 -0.018936194 -0.001675774 0.04828444 0.04605404 -0.013777327 0.1496484 0.14655738 -0.07379188 -0.09041229 0.03580512 0.11249681 0.024516106 0.037126217 -0.030475771 0.063591614 -0.13136758 -0.0017187895 -0.024152145 0.1756596 0.0945248 0.024295963 0.16935353 0.11148071 -0.045482766 -0.09028739 0.047011256 -0.03025695 -0.02805643 -0.07539884 -0.107331365 -0.18855427 -0.079439595 0.053984303 -0.053750034 0.124498345 0.038648568 0.006614497 0.06418618 0.10793822 -0.01787013 0.0966098 0.011116012 -0.094740056 0.040313862 0.09571331 -0.07879935 0.0086415075 0.073070236 -0.14014216 0.062023483 -0.18422486 -0.030355828 0.07130993 0.14215373 -0.06779576 -0.036181502 0.0031733715 -0.20932242 0.051381607 -0.03257392 0.03813471 0.18243173 0.0375873 -0.019509293 0.015950028 -0.049061578 0.10848829 0.046546966 -0.15191153 -0.09916575 -0.22824728 -0.025016053 -0.10791462 0.0034515078 -0.08378336 0.09620212 0.1233841 0.0048933667 -0.14674939 0.0790253 -0.00038988338 0.018549476 -0.06364049 0.013909904 0.05900695 -0.11264121 -0.062141646 0.047168933 -0.06995852 -0.22185507 0.005615598 -0.05368428 -0.030036952 0.0073998966 -0.091152646 -0.032131203 0.043149684 0.016683387 -0.015353789 -0.03879931 0.06427587 0.027237276 0.12918931 -0.053768028 0.17665812 0.007591977 -0.15064918 0.062040545 0.022355845 -0.039975822 0.059625804 0.011365435 0.06660248 -0.08822608 0.026201962 -0.06184058 -0.035099607 -0.023691988 -0.027836133 -0.0010846055 0.072688386 0.15238573 -0.059945863 -0.07251442 -0.018813217 0.018314056 -0.049549088 -0.0032478175 -0.0482869 0.09177574 -0.013885153 0.0043630307 -0.053182706 0.037215862 -0.13495621 0.17856997 -0.0057651834 0.077417195 0.021643052 0.017523376 -0.038417485 0.02716034 -0.03762294 0.009623123 -0.043137435 0.04325716 -0.016078444 0.06946008 -0.04201254 -0.031506006 -0.130117 -0.06322967 0.03739464 -0.031627316 -0.11374676 0.015880877 0.027697893 0.015099494 -0.03919238 -0.14127989 0.09651201 -0.010442556 0.020428604 -0.060173746 -0.12289965 -0.06552124 -0.012749996 -0.18421939 -0.08658859 -0.00018296731 -0.07424359 0.105878845 -0.13529658 -0.01713569 0.07785804 0.09482569 -0.09260099 -0.07154428 -0.04038349 0.03362146 0.104534216 -0.026397878 -0.01343588 0.17813481 0.027335864 -0.04438703 0.04204675 -0.049447797 0.13813062 -0.04999038 0.060727667 0.08648414 -0.0922469 -0.008353549 0.067676134 0.10565902 0.15144184 0.0014849763 0.14894648 -0.07204192 0.02325447 -0.00307935 0.05368637 0.11424618 -0.118134685 0.020091536 -0.016163064 0.09014651 -0.121497676 -0.03171539 0.0024858287 -0.09698504 -0.022030886 -0.10797625 0.019943263 0.09583461 -0.042858534 0.17639685 0.03978685 0.13652374 0.042856872 0.00062481005 0.07379417 -0.02927818 0.061739244 0.11164125 0.09640332 0.10629008 -0.06893154 0.0901159 -0.091816686 -0.08550433 0.11386405 -0.048711814 -0.029196111 0.01966275 -0.09868457 0.018622452 0.015124216 -0.07315821 -0.004810152 -0.06232366 -0.06738761 0.07475789 0.08180688 0.10197673 0.028517356 0.025592623 -0.0040937243 -0.0152150765 -0.10722153 0.11191397 -0.03210868 0.07927394 -0.06270372 0.04532918 0.0010817574 -0.02773517 -0.14084086 0.03425608 -0.013531101 0.20242459 -0.08301423 0.13890518 -0.013218148 -0.06752593 0.049516875 -0.020646438 0.19241534 0.0019264066 -0.15862167 -0.05808009 0.08248478 0.03053237 -0.03695777 0.037269913 0.008190744 -0.03888406 0.103946686 -0.06733871 0.018408295 -0.0019584026 -0.036962744 -0.09444314 -0.039971232 0.009231886 0.10430897 -0.0689134 -0.021962224 -0.039969858 -0.04467878 -0.06511275 0.08745835 0.11650095 0.12400525 -0.050378565 0.0029748736 0.034989525 0.09297561 0.0062923618 0.09127666 -0.029527046 0.0057800375 0.084592484 0.15187891 -0.03782427 -0.04707912 -0.15055485 -0.010379828 -0.13151875 -0.08103009 0.07518341 -0.11264192 0.014463808 0.102208264 0.01613302 0.03474744 0.12758903 -0.047127236 -0.012933406 0.0067382148 0.04454766 0.07525924 -0.06975988 0.014177767 0.11329719 0.09771567 0.028999852 -0.060473822 0.0516986 0.009509429 -0.04622181 -0.011242984 -0.06396819 -0.0051044873 -0.013941807 -0.10722618 -0.05041337 0.06808866 -0.026065484 -0.032661997 0.0230323 -0.077885926 -0.04189178 -0.00062236004 0.01428181 0.07798123 0.08892805 -0.17624323 -0.069883324 -0.11634684 0.06484631 0.13117322 -0.092038244 0.025781788 -0.028694361 0.076098636 -0.05397438 0.011999305 0.03978481 -0.022010222 -0.13242756 0.12623917 -0.060041126 -0.014658904 -0.1365449 0.03922369 -0.013792775 -0.019897629 0.002212617 0.04127668 0.025611514 -0.01716347 0.12635852 -0.01661621 0.1130868 0.03496377 -0.052428305 0.040272098 0.022777405 0.031747654 -0.015617468 0.042536903 0.032726124 0.024768855 0.10751787 -0.14753693 0.037644487 0.041095074 0.084036574 -0.007853728 -0.007171522 -0.0533453 0.09526761 0.033928655 -0.09516724 0.03124074 -0.05556291 -0.030669216 -0.053420354 0.020994062 0.013605632 -0.027174514 -0.022354564 -0.096012436 -0.0033180579 0.07622179 0.042273827 0.05675532 0.029460836 -0.06993621 -0.004784442 -0.035836354 -0.07271289 0.08472705 0.121813215 0.00989274 0.01806285 0.094833024 0.029696798 0.033156864 -0.007331375 0.027960965 -0.01010587 0.073029295 0.044284195 0.019310456 -0.098022394 0.050722826 -0.0046574287 0.030224638
2 -0.018529058 0.11275085 0.059578743 -0.03810948 -0.041086454 -0.010638317 -0.006555103 0.0986721 0.0338687 -0.04237288 -0.01617587 -0.01957882 0.0057318294 -0.089970455 0.050284594 -0.15777047 -0.15900224 -0.1484891 0.055179298 0.030977156 -0.18839742 0.029010912 0.010848997 0.09066887 -0.04268665 -0.084545635 -0.0011604336 -0.0326456 -0.10650809 -0.030528536 0.07970924 -0.13819136 0.030121602 0.009221146 0.073126346 0.21262829 0.17929876 0.0015661233 -0.030880991 -0.012448792 -0.002009294 -0.114981584 -0.26106188 -0.01537841 -0.20124123 -0.098877676 -0.02858838 0.08766615 -0.052514434 -0.0074128024 0.03284182 -0.11001129 -0.007414967 0.05381507 -0.043765187 0.05645205 0.124223344 -0.12513308 -0.10213446 -0.064603664 0.12057811 0.0066641183 0.18362564 -0.1724611 -0.067337975 0.11742579 -0.013627889 -0.07230613 -0.10048446 -0.019875837 0.108633935 0.108787395 0.05040728 0.026791038 0.20075877 0.2062811 -0.10721075 -0.095279545 0.001632197 0.17232701 -0.012348167 -0.0065715443 -0.021435725 -0.011590031 -0.1728763 7.837177e-05 -0.064296514 0.19792221 0.08850778 0.033988107 0.20662566 0.094542414 -0.039083473 -0.03005896 0.064993046 -0.028753255 0.022167457 -0.084828965 -0.17461906 -0.23292324 -0.11795032 0.071784034 0.015190187 0.15777197 0.014821388 0.03564212 0.001372349 0.108924694 -0.022478383 0.12572615 0.055087186 -0.06257463 0.031768285 0.17672378 -0.10807608 -0.018579114 0.15339619 -0.15203853 0.04147393 -0.21509716 -0.11643736 0.08987432 0.18483014 -0.06271458 0.01914955 0.053042095 -0.23204346 0.058116827 0.00048453233 0.05315674 0.21574998 0.049414586 -0.06674534 -0.047286414 -0.026965713 0.10034129 -0.0011892264 -0.19904537 -0.10887012 -0.32556245 -0.044889208 -0.11706066 0.026795883 -0.1446958 0.033365693 0.13768458 -0.012817446 -0.16178687 -0.026587576 -0.019748345 -0.0066228393 -0.049175095 -0.054659426 0.13412786 -0.15562662 -0.08985343 0.02552863 -0.061144557 -0.21542113 0.015632922 -0.080483966 -0.019435305 -0.019175246 -0.032277916 -0.014231226 0.026457235 0.006221862 0.01348636 0.0035236413 0.055003077 0.037791617 0.18587294 -0.022167007 0.1531727 0.039676514 -0.14050196 0.015065693 0.063354515 -0.04135291 0.10459356 0.031184928 0.025715519 -0.04062782 -0.010716347 -0.09869843 0.0067865564 -0.030452756 -0.047679175 -0.047938846 0.080026835 0.16086718 -0.09803636 -0.097385824 0.016074503 0.031000983 -0.055788983 -0.009650493 -0.049198516 0.11251355 0.021103475 0.028127398 -0.068514965 0.056311287 -0.060225394 0.15655932 -0.030494822 0.103392005 0.028112674 -0.02566467 -0.081666514 0.011468989 0.017827442 0.06755993 -0.038695693 0.04154229 0.023671066 0.03689823 -0.0060982937 -0.02540653 -0.13785139 -0.038701665 0.068173915 -0.06892138 -0.12246792 0.046606462 0.04350037 -0.009455024 -0.04807552 -0.12995377 0.14271909 -0.032692075 0.036616582 -0.096835345 -0.18098001 -0.016916703 0.06351237 -0.18356483 -0.10433712 -0.043602385 -0.05050567 0.18922651 -0.16731972 0.0090942895 0.06436882 0.08475742 -0.082422055 -0.064164855 -0.043932162 0.007581109 0.09460949 0.021269474 0.00811152 0.12654884 0.07378649 -0.048159476 0.04001848 -0.030084742 0.1145461 -0.044622622 0.07816944 0.10379344 -0.06131768 0.04562605 0.11145053 0.12364966 0.15408683 0.04615934 0.13093849 -0.10314793 0.035761096 -0.0021114538 0.017269611 0.10728441 -0.13173318 0.039609835 0.015701372 0.07428459 -0.11641913 0.0043618185 -0.008265852 -0.17623289 -0.023639454 -0.0957053 -0.009883883 0.053640552 -0.015987365 0.18561456 0.094788745 0.15896708 0.043796834 -0.047957774 0.07587017 -0.072684705 0.12540485 0.07370422 0.026996778 0.054856777 -0.07855768 0.115388505 -0.09813718 -0.07740806 0.10368223 0.016852979 -0.010864309 0.0041574705 -0.16954984 -0.0054196855 -0.0007368088 -0.088882685 0.04466069 -0.070898704 -0.082879476 0.099871136 0.11793229 0.14471018 0.09198746 0.0049842405 -0.049658444 0.008897661 -0.12066049 0.116925895 0.006876329 0.07598256 -0.09245341 -0.00026945167 0.08232227 0.0011867604 -0.13336782 0.047116373 -0.083713055 0.25093028 -0.09128205 0.08962296 0.025431413 -0.04094589 0.042160735 0.014708704 0.15658796 -0.0070765098 -0.14093702 -0.04221303 0.0880258 -0.016542686 -0.029760871 0.03420981 -0.053687412 -0.020857057 0.09380042 -0.11722981 -0.031003587 0.03556469 0.015495024 -0.051060054 -0.032744955 0.019049315 0.13627382 -0.08382241 -0.031284884 0.011316853 -0.1310449 -0.105269596 0.0151701765 0.10087741 0.09506568 -0.04138337 0.0812652 0.052293774 0.05751039 0.0011873089 0.08601378 -0.046981357 0.017213685 0.008157074 0.11168001 -0.04081027 -0.020608963 -0.15753339 -0.04317287 -0.12088779 -0.06678586 0.06330531 -0.09250014 0.05344211 0.08551651 0.039010424 0.04045145 0.062050372 -0.05174856 0.0033252784 0.049561523 0.013542473 -0.0038526603 -0.06925047 -0.025479373 0.13281754 0.12144129 0.085278764 0.027979124 0.025998054 0.008337321 -0.07824596 -0.0450921 -0.06737702 0.051662676 -0.08321072 -0.1435561 -0.042973254 0.10763954 -0.004747665 -0.07018426 0.036944978 -0.0267436 -0.048631765 -0.00071871514 -0.037110932 0.10038012 0.07669615 -0.116159774 -0.04388414 -0.059289932 0.019302238 0.1009859 -0.10569255 -0.025201136 -0.027647277 0.037386414 -0.021690572 -0.032134682 0.01965104 -0.054977465 -0.056831 0.14944541 -0.057223685 0.035410922 -0.15742843 0.061440468 0.023322798 -0.02634712 0.007204847 0.051412415 0.060490366 -0.0064532435 0.10453073 -0.05453941 0.13241914 -0.03395627 -0.01424374 0.0054205465 0.06175935 0.026119491 0.017562876 0.058233052 -0.012829361 0.050826296 0.11281918 -0.111523785 0.058070704 0.026101707 0.108534686 0.010554753 0.00602922 -0.048648756 0.120855846 -0.021882987 -0.067124404 -0.011200081 -0.066693366 -0.06882434 -0.031970173 0.06917483 0.051772468 -0.08935163 -0.018762961 -0.07548371 0.021574657 0.10791783 0.078062125 0.04196945 0.04096421 -0.03423207 0.039085075 -0.05697308 -0.13206048 0.09898241 0.12178868 -0.050708774 0.013504523 0.0851104 -0.014806936 0.09153889 -0.010605443 0.03183069 -0.030828495 0.037992366 0.10984985 0.009958002 -0.042536754 0.0732932 0.051651377 -9.3394e-05
32 0.17842034 0.12692969 0.094259664 -0.10699616 -0.088875026 -0.08931225 -0.046361182 0.21080244 -0.08031495 -0.02402738 -0.01491954 0.0133252805 0.06735044 6.445591e-05 0.028930658 -0.045076165 -0.09857222 -0.01913659 0.010353359 -0.074995294 -0.056157395 -0.038238093 0.02800709 -0.016398301 -0.117776744 0.05402545 0.036886167 0.037626445 0.01584148 -0.014856645 0.07738984 0.024391407 0.094830945 0.07985045 0.08264802 0.16588469 0.12423456 -0.09878643 -0.029469498 -0.14245284 -0.04733068 -0.02794368 -0.014548525 -0.13850431 -0.16885747 -0.0775468 -0.06444591 0.041974977 -0.017569637 -0.09186741 -0.10133426 -0.035360195 -0.050966524 -0.1040625 0.17554843 -0.030986382 -0.08077196 0.03251948 -0.024232851 -0.0386145 0.072672606 -0.0609579 0.056432676 0.013865341 0.046527877 0.13727075 0.06572238 -0.12293189 -0.06549767 0.05094373 -0.08482854 -0.06302205 -0.019933948 -0.039094213 0.047823716 0.08887327 -0.049496472 -0.10572711 0.06503052 0.123899765 0.1011807 0.056824677 -0.08079045 0.10369631 -0.07211379 0.022242071 0.035684645 0.10743064 0.098024435 -0.012261215 0.10826138 0.08613648 -0.00021010211 -0.06643848 -0.033795223 -0.12448931 -0.036541663 -0.02627731 -0.01411143 -0.12625976 -0.005719251 0.0934728 -0.1464703 0.047529425 0.0365535 -0.019537462 0.09509525 0.11854705 -0.036407445 0.10060955 -0.041222084 -0.054400396 0.04576486 0.0015314294 -0.016930917 0.01047287 0.013377842 -0.14015251 0.069217995 -0.1484505 0.040538896 -0.019106086 0.059709664 -0.041640766 -0.12938534 -0.10740444 -0.24282593 -0.002281807 -0.010673895 0.006173176 0.096064545 -0.021692311 -0.008777779 0.08313544 -0.021447657 0.06903346 0.05720442 -0.045880474 -0.036681756 -0.09018468 -0.01053264 -0.04144086 -0.03395742 -0.0136215 0.11041937 0.07865321 0.07578898 -0.060587604 0.16656613 0.0935556 0.0059448285 -0.06604804 0.078034826 -0.022103753 -0.04261438 0.0049002664 0.08224464 -0.060249098 -0.18854538 -0.009032874 -0.04901187 -0.017240187 0.0050649457 -0.13405056 -0.07356087 0.08983598 0.08372057 0.002921034 -0.074102506 0.047996502 0.018319905 0.057406716 -0.04359213 0.16409904 -0.077387385 -0.16212238 0.08188051 0.050456088 -0.04847892 0.061650146 -0.06818923 0.13849315 -0.13866314 0.13057768 -0.022633944 -0.094563425 -0.017250728 0.015974931 0.0978078 0.08183063 0.09256536 -0.057069875 -0.06286805 -0.017394885 0.031672478 -0.029537443 0.03305826 -0.008656446 0.083885856 -0.022378089 -0.017212035 -0.063211665 0.05865783 -0.17428719 0.19535638 0.015745893 0.09621418 -0.01054875 -0.0032105371 0.030689364 -0.017559195 -0.13005416 -0.044520013 -0.034104835 3.661245e-05 -0.06778014 0.061199676 -0.0600305 -0.08652628 -0.08216199 -0.09335367 0.06216031 0.041757315 -0.05316012 -0.0008964145 0.027611151 0.05183556 -0.03698458 -0.13349904 0.06841334 0.029226169 0.017651374 -0.016199267 -0.05060274 -0.17024715 -0.08261069 -0.1832771 -0.08433211 0.035490982 -0.10590798 -0.001988238 -0.06818668 -0.031937357 0.15188053 0.029293342 -0.079277344 -0.0497611 -0.109992266 0.015801668 0.08244247 -0.04102665 -0.09929308 0.16305467 -0.04114042 -0.06329128 -0.0061979084 -0.09172581 0.15985775 -0.08153212 0.01898965 0.05376195 -0.1347286 -0.041352805 0.04090736 0.06115516 0.09373383 -0.029930184 0.14616305 -0.047613956 0.035631057 -0.034049664 0.11605805 0.13367946 -0.15541771 0.00014792317 -0.04223346 0.14396523 -0.18925795 -0.09369508 0.060717523 -0.018978244 -0.033291817 -0.10928421 -0.0011840794 0.07152942 -0.14704958 0.12783568 0.030973753 0.07377695 0.04658282 0.015171699 0.12054963 0.015335365 0.03853656 0.16553381 0.13437723 0.17596073 -0.009553155 0.03631744 -0.026937908 -0.13271777 0.15928057 -0.06078029 -0.060842544 0.043710914 -0.016089808 0.017740654 -0.021897936 -0.0023434362 -0.04031592 -0.04253526 -0.08469351 0.025895167 0.05110629 0.03109122 -0.0145252785 0.020580376 0.05209512 -0.05535336 -0.13797405 0.11314654 -0.03613653 0.031329643 -0.075933225 0.03262812 -0.043426663 -0.07073511 -0.16928527 -0.025556998 0.03914728 0.18120545 -0.04763419 0.23465797 -0.03168713 -0.09986869 0.012044549 -0.078073785 0.23225604 0.026760383 -0.14831531 -0.052708786 0.11516323 0.08543599 -0.06065832 0.040560186 0.05388772 -0.032366633 0.08225991 0.0045653386 0.092734866 -0.028119314 -0.109266385 -0.09578114 0.013376858 -0.011956587 0.114830986 -0.083453216 -0.0315813 -0.12203603 0.037585936 0.025419537 0.18328118 0.11019971 0.13300943 -0.028080676 -0.15498233 0.01821409 0.12526329 0.011007603 0.15014653 -0.024493732 -0.011759877 0.12591127 0.15526442 -0.05038107 -0.024953412 -0.1349617 0.005739146 -0.14608741 -0.0929448 0.089660294 -0.091788776 -0.0661106 0.11974704 -0.07912111 -0.00029833257 0.20635112 0.021433666 -0.033476476 -0.08438546 0.067625575 0.1655503 -0.119694225 0.0829576 0.04670994 0.09627286 -0.024730535 -0.11261495 0.073836006 0.037041232 -0.016534084 0.04922117 -0.07360413 -0.100131005 0.05074491 -0.078667335 -0.05843524 0.018625643 -0.081834204 0.024631029 -0.029972745 -0.14342403 -0.047496416 0.0063183964 0.072208025 0.09925909 0.10099689 -0.21814853 -0.101964585 -0.1976737 0.1225859 0.13449666 -0.02201333 0.037690233 -0.062506996 0.106726654 -0.039750524 0.02779742 0.07362134 -0.026035607 -0.2440896 0.13526534 -0.08809541 -0.0622366 -0.069364615 -0.013977907 -0.019576378 -0.027044393 -0.03313051 0.0874422 -0.025899265 -0.07652507 0.14605692 0.0017249376 0.09466657 0.11568768 -0.116004646 0.091710985 -0.02516304 -0.020607723 0.07066231 0.046517447 0.13448046 -0.020218836 0.04679044 -0.2243444 -0.0069831572 0.061152603 0.029638965 0.030585138 -0.0025849433 -0.051915705 0.055450186 0.11332787 -0.03219492 0.05913191 -0.01538139 0.020129478 -0.16126238 -0.01807599 -0.045317408 -0.039254304 -0.044367168 -0.14790459 -0.039940886 0.039686926 0.019875586 0.10675219 0.05517585 -0.10121492 -0.107424326 -0.031073883 -0.016590126 0.041172277 0.14546998 0.049628567 0.03834447 0.11761953 0.13117039 -0.04465527 0.05042495 0.027196253 0.042381518 0.086154595 -0.0011951214 0.046151333 -0.102709256 0.011881685 -0.07952778 0.08490061
4 -0.050236892 0.11395366 0.0026318105 -0.02629249 -0.017013023 0.0071851057 0.021013476 0.05515329 0.0130474 -0.008772821 -0.08762814 -0.021863252 -0.016605495 -0.13789059 0.029404556 -0.2062503 -0.18275033 -0.16018511 0.080758445 0.034501314 -0.1861997 0.015755907 0.029612679 0.06840543 -0.043166604 -0.060479183 -0.03981703 -0.027145278 -0.07900049 -0.05292033 0.052542385 -0.11870713 0.025013255 -0.053448856 0.078236036 0.15397756 0.15586585 0.00010663805 0.034647513 -0.006733641 0.031535238 -0.11306748 -0.16689019 -0.050387394 -0.20081747 -0.10735025 -0.0302742 0.09634205 -0.011615757 -0.06626078 0.0035395431 -0.09571922 0.02637518 0.06545197 -0.029478602 0.06613707 0.13054924 -0.06328283 -0.10793735 -0.06566463 0.1510496 0.011616674 0.18179666 -0.112400286 -0.0071360506 0.09878932 -0.010591001 -0.06918038 -0.08860384 -0.06655417 0.04895958 0.070087336 0.09993141 0.01920686 0.18225066 0.1785299 -0.09727535 -0.066169485 0.036201727 0.1452409 0.003298734 -0.0118479645 -0.030123811 -0.007835274 -0.1617371 -0.037997488 -0.055009037 0.19458888 0.0874763 0.038764082 0.20823598 0.113407604 -0.066060044 -0.09078632 0.09026118 -0.030751018 -0.02476448 -0.11513945 -0.17430763 -0.24568269 -0.12002183 0.03006525 -0.0046289614 0.14688982 0.030420825 0.022061154 0.020250319 0.087145 -0.004471829 0.10626487 0.066013634 -0.09938702 0.06293591 0.15108752 -0.0799488 -0.012947097 0.10713121 -0.1389782 0.08254664 -0.21167998 -0.079566345 0.1072797 0.17391177 -0.0712206 -0.0012221143 0.04125102 -0.21866007 0.060030192 -0.01273986 0.05083005 0.21206596 0.08474336 -0.07035357 -0.024651155 -0.08013962 0.10437637 0.016965764 -0.23961988 -0.09970078 -0.321769 -0.032958217 -0.1270902 0.03603237 -0.13634706 0.09038805 0.18828987 -0.048645478 -0.19887541 0.016008113 -0.066528894 0.03517215 -0.023187147 -0.025877304 0.10447587 -0.14784873 -0.102503486 0.027477302 -0.061926953 -0.2233018 -0.017973324 -0.08136261 -0.03357142 -0.027757334 -0.05341979 -0.02660519 0.0020988826 -0.044769127 -0.03313461 -0.018114533 0.0580271 0.025694733 0.16414675 -0.0781658 0.17333174 0.052195452 -0.16113506 0.04877297 0.039577983 -0.06252191 0.09068428 0.06695605 0.020442339 -0.07719045 0.00932383 -0.097876325 0.01905023 -0.025207795 -0.040236983 -0.040800832 0.06727686 0.17329855 -0.07219003 -0.11023849 -0.0145559 0.04033336 -0.05301401 -0.01771455 -0.0618946 0.11548584 -0.032189295 0.0367727 -0.058079824 0.02481805 -0.10489986 0.16061054 -0.0059047183 0.07912676 0.030488819 0.01829601 -0.05962285 0.063601404 0.011001555 0.055745687 -0.049622327 0.06581791 0.043636855 0.058602754 -0.057965904 -0.0003033142 -0.15337276 -0.039148763 0.036613632 -0.04979961 -0.15020275 0.044939343 0.030910077 0.019703848 -0.0331721 -0.14905633 0.12482769 -0.058093403 0.037994932 -0.06498409 -0.19471514 -0.0041547953 0.03313601 -0.21373402 -0.1144457 -0.04346374 -0.09858493 0.17559691 -0.20078285 -0.0056628827 0.06000577 0.15664044 -0.09766512 -0.11471278 -0.013929398 0.043224037 0.12377563 -0.034481075 0.016621016 0.18420707 0.097452804 -0.022134589 0.08057647 -0.034786437 0.14116788 -0.063971825 0.10185173 0.12931962 -0.08846685 -0.0072144014 0.10668506 0.12952971 0.19217288 0.004395876 0.16989596 -0.09904522 0.043090414 0.0067612026 0.009315423 0.10450409 -0.12492843 0.0375708 -0.03077626 0.07632046 -0.1372308 0.003668958 -0.019073194 -0.12082851 -0.019101197 -0.122482814 -0.0054952945 0.096735775 -0.007313696 0.19672078 0.088692024 0.18278408 0.039693262 -0.010672584 0.041480485 -0.09786581 0.10532199 0.09546262 0.083074085 0.08629283 -0.099468134 0.11676817 -0.1323339 -0.07475798 0.09958222 -0.009367832 0.014040824 0.018858315 -0.16060105 0.018614018 0.025668835 -0.09421781 0.020083917 -0.092371985 -0.068070345 0.10795912 0.1259101 0.14321595 0.05080092 -0.008526798 -0.036652192 -0.047368795 -0.095175885 0.09126523 0.00264575 0.08894587 -0.09164635 0.05872976 0.04873967 -0.012495938 -0.15376538 0.051086817 -0.04856898 0.22019501 -0.10920915 0.09965154 0.019171365 -0.08384249 0.1006324 0.016660973 0.1936032 0.010090451 -0.19725637 -0.057461027 0.09767201 -0.036598753 -0.0366947 0.03986693 -0.024928423 -0.036697626 0.15238757 -0.111031905 -0.042355776 0.02218683 -0.018714339 -0.067561515 -0.072563455 0.021522673 0.09719604 -0.08939216 -0.036013365 -0.034375858 -0.10240847 -0.13101426 0.016947575 0.11103583 0.10474467 -0.0593238 0.075856134 0.018542971 0.06782055 -0.011337306 0.08670738 -0.053360168 0.05846452 0.077459574 0.13929702 -0.026303787 -0.037848666 -0.18239407 -0.04726784 -0.12586302 -0.11691439 0.10103595 -0.16382518 0.06414792 0.09066808 0.035040744 0.081209034 0.08555638 -0.116952546 -0.0059569324 0.07089531 0.035029255 0.06094716 -0.03521966 -0.011537921 0.15172477 0.12937537 0.032255948 0.009006784 0.07877173 -0.02172544 -0.07898759 -0.0566157 -0.074669726 0.044786554 -0.079681635 -0.14884666 -0.080567665 0.1011017 0.008717563 -0.050356727 0.026349723 -0.06429838 -0.04315799 -0.007575292 -0.0018679053 0.08403483 0.049826402 -0.17819485 -0.05858501 -0.08144138 0.023036646 0.13803588 -0.10798442 0.01511416 -0.023709001 0.042930115 -0.05669528 -0.012339382 0.030034274 -0.056065086 -0.08870607 0.15846388 -0.03386805 0.01707566 -0.18636523 0.067857124 -0.025871078 -0.027062673 0.022847991 0.038464062 0.078145154 0.011822577 0.12905934 -0.07189779 0.14908366 0.010414006 -0.025914393 0.03594038 0.058558244 0.06209433 -0.03276223 0.035831798 -0.01934658 0.08196785 0.15067904 -0.122276925 0.058755495 0.01842042 0.12742302 -0.015949942 -0.0011296769 -0.023112211 0.11330126 0.008148092 -0.12749553 0.005278703 -0.09195223 -0.07549048 -0.006381586 0.04722018 0.08393483 -0.010475763 0.0030969875 -0.084178224 0.03846143 0.10430509 0.06679187 -0.015298916 0.03202342 -0.02775941 0.06934934 -0.063417815 -0.13009149 0.11390516 0.13629939 -0.03249964 -0.0032125032 0.10923342 -0.008494485 0.12267815 -0.045405615 0.03610888 -0.02200669 0.05739827 0.093098484 0.019242086 -0.13398266 0.05938139 0.02274441 0.009688092
24 0.27347758 0.17887388 0.2659346 -0.075707205 -0.15275861 -0.13329224 -0.108100794 0.21882984 -0.08671404 -0.06501583 0.036442343 -0.006873062 0.029674051 0.011469578 0.07892664 0.028140308 -0.15205702 0.002275677 0.034976814 -0.19467105 -0.093424 0.034921154 0.01580722 0.013720413 -0.18881877 0.08055932 0.06636654 0.040743414 -0.0054600076 0.03482929 0.07621553 0.0055146376 0.16538945 0.112387225 0.04887426 0.21624489 0.16965057 -0.12975207 -0.1395527 -0.17309731 -0.111147836 -0.01715133 -0.06968653 -0.122552395 -0.17380269 -0.08989923 -0.1223043 0.017215516 -0.035309527 -0.07899661 -0.08704528 -0.01387058 -0.12502441 -0.062735766 0.18747483 -0.061691314 -0.077352144 -0.09795499 -0.04199197 -0.009912229 -0.025183635 -0.030915095 -0.0017818271 0.0017395602 0.06450968 0.19386597 0.04488712 -0.13106461 -0.044813395 0.04155422 -0.076461464 0.03314039 -0.0501297 -0.07435911 0.09971811 0.0886834 -0.024708377 -0.13440856 0.030982392 0.07034749 0.07589974 0.13313851 -0.021353045 0.19285773 -0.0971556 0.050070014 0.027540376 0.18330966 0.12632693 -0.012682466 0.12195127 0.121290706 -0.007393486 -0.07242165 -0.00957972 -0.021976141 -0.035144832 -0.008617399 -0.002115944 -0.12181343 -0.00088458764 0.11246104 -0.14351258 0.09017467 0.04204455 -0.027193408 0.16934173 0.1482859 -0.038826402 0.09330741 -0.08467157 -0.093788646 0.009285534 0.014823586 -0.094765514 0.044687506 0.034214035 -0.1736193 0.043930206 -0.16415 0.028496372 0.015435536 0.12677814 -0.08014414 -0.097477555 -0.06463984 -0.25292906 0.067414574 -0.08032114 0.037122298 0.1728719 -0.038195238 0.06846946 0.0958673 0.002499259 0.15908529 0.103528805 -0.004077305 -0.12981148 -0.1002016 -0.029390363 -0.086437955 -0.03336727 -0.021324657 0.13683361 0.027830338 0.1232462 -0.051957224 0.19484733 0.123321906 -0.021190222 -0.14404762 0.08850598 -0.02130822 -0.082750216 -0.008012779 0.09376313 -0.0745339 -0.24508476 0.07452953 -0.015286292 -0.052361745 0.085072 -0.1847927 -0.015126417 0.12395054 0.1702641 0.016385574 -0.0834252 0.07873506 0.019283213 0.10978421 -0.022079067 0.22537379 -0.055621937 -0.12837619 0.06913627 0.0017164804 0.0033463459 0.019210178 -0.09523607 0.17815842 -0.10353598 0.050531894 0.0030651987 -0.16022608 -0.015448882 -0.011235218 0.105125464 0.1307787 0.1425811 -0.061188802 -0.041902903 -0.041738793 -0.000110611916 -0.08952487 0.03350514 -0.028054828 0.072274305 0.023069529 -0.06600404 -0.09474038 0.07859164 -0.2290811 0.23879157 0.0021674722 0.07138309 0.010771939 0.026949797 -0.03256535 -0.03752731 -0.12905924 -0.11135445 -0.04898988 -0.00044737928 -0.12252102 0.09632088 -0.007076462 -0.11633211 -0.108927354 -0.1538465 0.06440596 -0.0023924368 -0.06302179 -0.038458925 0.05031025 -5.0011844e-05 -0.049065527 -0.18106413 0.09200604 0.08418385 -0.008572708 -0.061500825 -0.039590836 -0.24045052 -0.12428191 -0.1986602 -0.094519064 0.07575127 -0.026007509 0.027689457 -0.047057413 -0.0601627 0.14723478 0.008236328 -0.13851541 0.038101193 -0.12143743 0.020574044 0.11237522 -0.02506549 -0.114980415 0.2139085 -0.10810212 -0.13933846 -0.05466624 -0.110695995 0.1876552 -0.03314139 0.0024523898 0.041226096 -0.10068697 0.023659732 0.015595827 0.07440651 0.1094985 0.010553497 0.15931168 -0.062845804 0.0027472116 -0.020673882 0.17502882 0.1860986 -0.18761973 -0.00995107 0.020508274 0.13354632 -0.124654956 -0.13363947 0.039864518 -0.087865755 -0.06917026 -0.13004437 0.10811385 0.12505591 -0.12564878 0.19074036 -0.050972294 0.053203803 0.076357 0.0005180341 0.17043836 0.10777482 0.008053524 0.16870554 0.13765395 0.19400589 -0.029200718 0.08666631 -0.02229041 -0.15771802 0.20888495 -0.14735684 -0.13064218 0.0022429666 0.0020497914 0.020345718 -0.0147857955 -0.07157387 -0.042383615 -0.014794958 -0.07294269 0.0058409846 -0.0017143341 0.033334192 -0.02012963 0.09089669 0.046226628 0.053439163 -0.17126065 0.17229801 -0.10762944 0.09857476 -0.006214093 0.028951213 -0.09069073 -0.035523515 -0.18806744 -0.0041490416 0.06912742 0.22987217 -0.071361735 0.2728976 -0.084024094 -0.033993516 -0.038205296 -0.12720674 0.24007404 -0.0049151466 -0.1006276 -0.084026285 0.06275502 0.16346146 -0.049038514 0.0584596 0.061530355 -0.03811952 0.021688936 -0.019816099 0.13859968 -0.04108765 -0.054247 -0.16498677 0.008294985 -0.009502964 0.14527014 -0.05015479 -0.01550171 -0.058400545 0.044307567 0.035692275 0.23330984 0.13092315 0.18766576 -0.027746342 -0.14591116 0.079619616 0.15633146 0.032449678 0.13236617 -0.006113548 -0.10857232 0.08098917 0.21414109 -0.098326735 -0.0791526 -0.1258734 0.063352086 -0.14370337 0.0041747694 0.06022459 -0.038201 -0.05513767 0.14123093 -0.0017797835 -0.057198063 0.24225816 0.07840484 -0.016759265 -0.09397214 0.058418874 0.09144702 -0.17914447 0.053257372 0.062897116 0.06632541 0.048261173 -0.21964036 -0.0227426 0.088408574 -0.008901554 0.07519928 -0.07399172 -0.11984219 0.13099252 -0.071884625 -0.024158068 0.039865024 -0.101874985 -0.019033112 0.05491385 -0.1393894 -0.061846547 0.017116554 0.04577512 0.078803435 0.2045936 -0.21461767 -0.09203185 -0.20016009 0.19323754 0.14608133 -0.08019612 0.069641106 -0.0433827 0.15432532 -0.055049118 0.068376385 0.0715515 0.03211815 -0.2539303 0.086871095 -0.13524115 -0.08436834 -0.08801384 -0.00040512838 0.021215094 -0.0035527155 -0.05999827 0.06820205 -0.08173058 -0.09980389 0.15756983 0.08251025 0.059407614 0.108174175 -0.11486035 0.045975592 -0.053164076 -0.013972047 0.017411962 0.08255808 0.16481255 -0.07677537 0.06142441 -0.2878315 0.010897329 0.115014195 0.0013655359 0.0056381505 -0.030284401 -0.13494019 0.1007412 0.09031153 -0.07168716 0.0825909 0.015813738 0.050680853 -0.15860447 -0.009973265 -0.11677165 -0.10450834 -0.08955382 -0.14370637 -0.081095606 0.04179894 -0.005831235 0.23183301 0.019736614 -0.17751625 -0.16336851 0.014554803 0.009614009 0.065910675 0.13271773 0.11359983 0.068889104 0.11994998 0.12080733 -0.12970655 0.07344049 0.00093216647 0.016417313 0.111446165 -0.026410213 0.05108874 -0.04176532 0.055659596 -0.057251494 0.070108995
14 0.022376629 0.12033835 0.07364486 -0.0579827 -0.051956907 -0.027801553 -0.017695274 0.11488502 0.0070930123 -0.034722805 -0.015552856 -0.014089472 0.008788548 -0.061220348 0.045072433 -0.12481931 -0.14695822 -0.12929794 0.05611265 0.016833516 -0.15440974 0.01370622 0.015226232 0.059129003 -0.051449582 -0.053355034 0.0073174527 -0.017939031 -0.075333536 -0.016079057 0.07243894 -0.098238416 0.041857053 0.019077342 0.061958604 0.17681266 0.15457001 -0.021030637 -0.03734413 -0.029420514 -0.011892544 -0.08630728 -0.19891647 -0.03084333 -0.1801373 -0.0870444 -0.03355559 0.07256012 -0.045709807 -0.024247732 0.00997206 -0.087320805 -0.018048497 0.025993159 0.0051159775 0.03266166 0.085626185 -0.09740689 -0.074536316 -0.05151161 0.10235445 -0.008875545 0.14673193 -0.13435002 -0.046596 0.1003373 -0.0061218096 -0.066901036 -0.087685235 -0.0049163383 0.0679219 0.0802139 0.039916445 0.018269932 0.16118108 0.16074292 -0.088193856 -0.09243535 0.010563116 0.1429089 0.0067120893 0.011916986 -0.025538167 0.014021244 -0.13987036 -0.005020906 -0.047770787 0.16645677 0.08716112 0.018626798 0.18107523 0.08739072 -0.030594284 -0.03853993 0.043547265 -0.03548518 0.01380157 -0.067421466 -0.13021491 -0.20392658 -0.09302914 0.06709641 -0.014897072 0.12025888 0.024854556 0.025354238 0.015216686 0.10906978 -0.023966271 0.108859785 0.03269734 -0.057493605 0.021788666 0.1385989 -0.08059686 -0.006559587 0.11524931 -0.133379 0.040002663 -0.18852729 -0.08229345 0.07509403 0.15020941 -0.05946167 -0.0027175525 0.023958856 -0.21156217 0.042198498 -0.009581824 0.041637193 0.18077718 0.03438301 -0.06049721 -0.02730164 -0.024636598 0.10285761 0.00914613 -0.15579538 -0.09496405 -0.2735585 -0.041827638 -0.09832615 0.018436458 -0.10873995 0.044064503 0.11489518 0.0032766776 -0.13107449 0.011003435 0.0027325118 -0.007338276 -0.051308654 -0.027491298 0.10423821 -0.12944977 -0.069352426 0.03724751 -0.053699587 -0.19409524 0.021880029 -0.06275571 -0.018773464 -0.009314674 -0.051440332 -0.022218876 0.036703665 0.011727604 0.01248913 -0.009439459 0.04897692 0.03193876 0.1545334 -0.024436858 0.14777553 0.020075003 -0.13178216 0.015412628 0.056105368 -0.038719274 0.08255079 0.01927312 0.04798357 -0.055835027 0.007718052 -0.0727405 -0.0070629637 -0.03422756 -0.03184758 -0.021249982 0.078118116 0.13956 -0.07825578 -0.085941784 0.010553246 0.034287322 -0.04879669 -0.0043298868 -0.054018255 0.10763299 0.006641195 0.017369334 -0.07017491 0.053346254 -0.08488797 0.15943122 -0.01915366 0.10462935 0.02452729 -0.02084291 -0.05740217 0.008685747 -0.0025508255 0.035610735 -0.040918007 0.02055376 -0.0018222773 0.04565608 -0.012421311 -0.034280695 -0.123305425 -0.047878843 0.05860974 -0.04319659 -0.112361 0.032652445 0.032206405 0.0039448496 -0.050981898 -0.12514223 0.124114744 -0.0131048765 0.022767182 -0.075935416 -0.15101871 -0.04010291 0.029811671 -0.1787041 -0.09623687 -0.016855929 -0.063691735 0.1455353 -0.14021619 0.011823092 0.08221797 0.072224215 -0.0751956 -0.06017077 -0.05195789 0.007004312 0.09551735 0.009207255 -0.0060198475 0.13480844 0.043588463 -0.053343847 0.019530835 -0.03526535 0.12422303 -0.053326886 0.0667499 0.09064241 -0.06984269 0.029818524 0.090630814 0.10317139 0.14212738 0.04253192 0.13970596 -0.089386195 0.028597042 -0.00757932 0.036140963 0.11081736 -0.12502703 0.038058687 0.0041136825 0.085345276 -0.122898996 -0.024355415 0.0016258677 -0.13927628 -0.023445215 -0.09814193 0.001445358 0.059935234 -0.03548246 0.16808876 0.07080511 0.12125624 0.045013763 -0.043158937 0.084050745 -0.046212472 0.103286095 0.087787785 0.046680864 0.06777684 -0.061982114 0.095998846 -0.09075692 -0.08722128 0.11312293 -0.010113799 -0.02057105 0.016437037 -0.14623588 -0.00048052942 -0.0026581285 -0.07555298 0.03125999 -0.056244668 -0.082022816 0.08054315 0.10617086 0.12278277 0.070426166 0.0012742805 -0.019927487 0.0003378653 -0.13475718 0.116031244 -0.003737884 0.06453748 -0.085026845 0.009369932 0.049248483 -0.009587615 -0.14378266 0.034007095 -0.063648835 0.24119928 -0.08316265 0.12631838 0.016457448 -0.05007508 0.036637228 -0.011157504 0.16826095 0.0047603142 -0.14667258 -0.047393378 0.08062804 0.0031136943 -0.024233118 0.031750742 -0.028363455 -0.021820216 0.082959004 -0.091547884 -0.0062484154 0.02408636 -0.0056194905 -0.06160124 -0.022545483 0.016324315 0.12844747 -0.081181705 -0.039582383 -0.007838701 -0.090156645 -0.067713104 0.051598314 0.09811835 0.094037496 -0.035308223 0.036419105 0.048319165 0.07417962 -0.004155542 0.085621856 -0.030083252 -0.0008000268 0.02906276 0.12216806 -0.045251545 -0.021336144 -0.14580412 -0.031181393 -0.121190675 -0.07027117 0.065520816 -0.08187584 0.027690172 0.08762774 0.024645293 0.033138458 0.09119857 -0.04305902 0.007687141 0.021745365 0.024569504 0.024757668 -0.074898936 0.0059320717 0.11826236 0.10956824 0.061150618 -0.004647189 0.023744296 0.013225495 -0.06143696 -0.02665593 -0.06756405 0.028408231 -0.050909493 -0.1229162 -0.04189706 0.08671042 -0.015317526 -0.05064062 0.024078064 -0.04742631 -0.04303717 -0.0027959382 -0.015405308 0.09767686 0.08806295 -0.14437725 -0.055956822 -0.08078363 0.04925666 0.11629478 -0.09304262 -0.018868286 -0.03343455 0.059927348 -0.027031222 -0.024621015 0.02509368 -0.0419684 -0.112964526 0.14167222 -0.071415916 0.011789502 -0.14261441 0.056989677 0.010388697 -0.020290002 -0.009703847 0.0601667 0.045518428 -0.01675888 0.110830314 -0.0390634 0.12625934 2.270186e-05 -0.03878659 0.016380368 0.043055817 0.014932332 0.018524582 0.05169987 0.014570128 0.027815204 0.097142674 -0.1441309 0.038779933 0.030642744 0.08466622 0.011012865 -0.0015817125 -0.05522994 0.10984058 -0.00097571325 -0.058542274 0.0072958386 -0.050430875 -0.036830727 -0.046906903 0.048052914 0.032246258 -0.07965816 -0.0289157 -0.089675136 0.010134898 0.09046718 0.06492682 0.05748281 0.03790701 -0.054742783 0.00058769144 -0.053213198 -0.1016034 0.08448678 0.11563236 -0.030435344 0.02035625 0.082515225 0.0096533 0.04712515 0.0101111755 0.032840095 -0.017969722 0.057995528 0.086820506 0.028606908 -0.054986835 0.066330485 0.013431537 0.02617933
6 0.03417123 0.15033764 -0.09144758 -0.22336803 -0.054195352 -0.05718814 0.03044588 0.3690702 -0.03778181 -0.022847721 -0.03502042 0.046549 0.15315843 0.016432902 0.013913299 -0.25804743 -0.122306496 -0.22436509 0.035105918 0.21393618 -0.07628905 -0.14415132 0.058222506 -0.00017903442 0.0334507 -0.12233234 0.043511216 0.019890314 -0.06320227 -0.066690154 0.16692816 -0.058531653 -0.01869325 0.059514776 0.18917717 0.1713952 0.15651062 -0.03213407 0.05986195 -0.038197797 -0.0052621695 -0.1126841 -0.21698707 -0.091899276 -0.2601732 -0.0879848 0.060300022 0.1558626 -0.067581624 -0.014897465 -0.029901871 -0.1673878 0.045586854 -0.1366657 0.12110556 0.063688286 0.05700841 0.114406325 -0.018335653 -0.12524101 0.30758163 -0.11888293 0.2551468 -0.18518594 -0.15995839 0.030938556 0.036616556 -0.06292106 -0.1570245 0.105283655 0.0633224 -0.11039515 0.07000609 0.08231925 0.076542124 0.20377469 -0.13079762 -0.11013848 0.06620867 0.31538862 0.09447236 -0.11641213 -0.1813571 -0.09481274 -0.13732578 -0.037864514 -0.037931286 0.03586016 0.11407374 0.00802066 0.2118032 0.043487657 0.012429422 0.022550711 -0.045449976 -0.28043997 0.055197533 -0.06079794 -0.13408835 -0.28057656 -0.077390395 0.12062662 -0.079318754 0.022875976 0.025500396 0.053066984 -0.117211945 0.14716394 -0.053834397 0.19908817 0.07686418 0.01594804 0.050247245 0.15698221 0.07346418 -0.059213106 0.09505157 -0.1139335 0.08663096 -0.23399061 -0.06585416 -0.023600161 0.035691656 0.017356725 -0.101341695 -0.109160915 -0.32351267 -0.14550072 0.1090914 -0.02438485 0.033447623 0.0042475807 -0.25019717 -0.07097814 -0.019810546 -0.014331032 -0.061199427 -0.18092498 0.05664523 -0.29813212 -0.043577693 -0.0028507502 0.00026221675 -0.084573016 0.0052236277 0.22682457 -0.0134407375 -0.07350828 0.021441178 0.089181885 -0.007620809 0.032178733 -0.04286046 0.11023669 -0.078342244 -0.014811429 0.05364837 -0.011928805 -0.11063538 -0.089779764 -0.15435602 0.060703818 -0.16951242 0.01501634 -0.1218043 0.04080543 -0.08967085 0.058810085 0.009580295 -0.015147224 0.054921623 0.095258735 -0.023436526 0.049825262 -0.05832357 -0.2193273 -0.002882653 0.19908082 -0.099890955 0.18681873 0.011580594 0.0001975297 -0.16298558 0.16653149 -0.10732231 0.06664397 -0.038456548 0.026685867 0.0373147 0.042601287 0.01877201 -0.079260536 -0.14028865 0.11223811 0.11231884 0.07581694 0.037362643 -0.002040219 0.14586511 -0.083059095 0.123045094 -0.07707903 0.07025884 -0.0048475238 0.13778137 0.005036099 0.23504053 -0.022779588 -0.16631147 0.06585123 -0.0380983 -0.052857596 0.15370877 -0.034097288 -0.0064667827 0.06787288 -0.031644884 -0.07936027 -0.036014553 -0.116095334 0.011726955 0.115607984 0.07793572 -0.13225597 0.101763256 0.023477258 0.110509604 -0.05703745 -0.07276695 0.14157704 -0.07837054 0.0872982 0.033824526 -0.20449346 -0.0072885975 0.112124644 -0.21405916 -0.09961064 -0.104808964 -0.2486991 0.10813013 -0.16863282 0.09238346 0.21294607 0.09332586 0.014850527 -0.18407333 -0.14405356 -0.045141865 0.05716763 0.010676515 -0.027563725 0.031251792 0.12414448 0.01749004 0.0071280026 -0.037798997 0.12321225 -0.2149808 0.10273576 0.13346815 -0.15607049 -0.05999502 0.16949889 0.07443848 0.12820011 0.015431061 0.17861211 -0.11215016 0.11852015 -0.07655791 -0.022621837 0.07618325 -0.13585702 0.095734276 -0.07829364 0.2008941 -0.32857397 -0.041151956 0.12765266 -0.03123226 0.018054992 -0.12229646 -0.24748044 -0.054802734 -0.16789979 0.09375652 0.29369694 0.11946389 0.008199538 -0.061162 0.09491675 -0.18692349 0.21800743 0.16577381 0.056100294 0.098554745 0.006073742 0.034022033 -0.0969542 -0.14780095 0.13671546 0.16393049 0.07438011 0.13791236 -0.24776445 -0.023448473 -0.057724535 0.04741529 0.02672067 -0.09053686 -0.16939737 0.102095164 0.26101398 0.14782304 0.07782924 -0.18700454 0.04303764 -0.2134895 -0.18519382 0.071484916 0.14900886 -0.071589515 -0.26917312 -0.030464992 0.16042928 -0.07618351 -0.18545927 -0.040557027 -0.14491263 0.28284115 -0.07035256 0.19899558 0.127997 -0.1873004 0.110053584 0.0059825284 0.29796082 0.112895444 -0.31018946 0.023943318 0.2287763 -0.120783955 -0.05864515 0.009612032 -0.047264908 0.039174516 0.17210935 -0.034301545 -0.05550571 0.070319094 -0.1620505 0.049519688 0.019936537 0.014913542 0.18636969 -0.23876517 -0.11490172 -0.13640499 -0.12108366 -0.034128796 0.069129765 0.09961528 0.030993804 -0.0019854456 -0.062164377 -0.018572334 0.07613033 -0.10641275 0.21930502 -0.06370601 0.12520298 0.09838073 0.062129967 0.011476641 0.12846728 -0.2079473 -0.13158599 -0.17917366 -0.28349084 0.12678428 -0.15763238 -0.01080667 0.08471432 -0.15833333 0.11926253 0.10288815 -0.12642561 -0.01366587 -0.013680598 0.05098542 0.15372455 -0.02714666 0.13692208 0.07534451 0.21969987 -0.049322132 0.20971923 0.16981874 -0.06003559 -0.09552681 -0.030918604 -0.13990085 0.025825856 -0.23354298 -0.18626952 -0.11526272 0.05575156 -0.0031556692 0.047121435 -0.17374435 -0.08875292 -0.037723575 -0.021425545 0.06345086 0.21347104 -0.03820061 -0.23738219 -0.11550581 -0.12241865 -0.01491078 0.13480033 0.059507012 -0.11764538 -0.13959326 -0.009310629 0.012113852 -0.15919411 0.05284984 -0.179573 -0.21186432 0.2782172 -0.030637087 0.039689016 -0.12369453 0.053125307 -0.09042677 -0.08751194 -0.046743248 0.17533049 0.1418648 -0.0060131503 0.11828429 -0.19302234 0.21523169 0.059743177 -0.08003534 0.08119348 0.10423062 -0.050755963 0.21678162 0.014072756 0.038569193 0.11239606 0.03250377 -0.13476357 -0.028308153 -0.09426823 0.109008156 0.0901062 0.07989981 0.06650666 0.034468874 0.069023386 0.08961376 -0.012962357 -0.08149136 -0.06818787 -0.16212259 0.049314667 0.1478314 -0.06844248 0.013253489 -0.1760041 0.06371923 0.12593284 0.14082465 -0.10909445 0.15781793 0.032851577 -0.0052899607 -0.1894885 -0.14490937 0.025192175 0.19020154 -0.19446686 0.010189297 0.10680607 0.059847012 0.15043627 0.050760955 0.058474243 0.034965742 -0.0069084987 0.15263525 0.031767372 -0.15951626 -0.0019820281 -0.06428356 0.10662558
7 0.0014753953 0.14157397 -0.11872826 -0.21931784 -0.05378046 -0.054494727 0.051351115 0.36333236 -0.03436911 -0.01395953 -0.03429796 0.05172158 0.1539991 0.0030845979 0.0075752907 -0.29138365 -0.12737928 -0.24554472 0.029810317 0.22761106 -0.08290291 -0.14609955 0.050151587 0.005039954 0.0453397 -0.13459833 0.034727715 0.01434574 -0.058087606 -0.074865624 0.16137682 -0.060956795 -0.026544163 0.04300929 0.18721054 0.16538821 0.1505305 -0.015394112 0.08343495 -0.040346086 0.016177004 -0.13024153 -0.22224455 -0.08114109 -0.25771073 -0.095280096 0.061948493 0.15351792 -0.0667263 -0.022330092 -0.031705324 -0.17452386 0.06071216 -0.12725289 0.11128382 0.07474724 0.07633968 0.12472327 -0.020535542 -0.119111225 0.32710925 -0.121581174 0.27668223 -0.20989542 -0.163917 0.0279445 0.030784179 -0.057250816 -0.15805456 0.090955466 0.06860108 -0.108062655 0.087083444 0.098802365 0.09123903 0.22007813 -0.14160737 -0.118138894 0.06372847 0.3292851 0.09083389 -0.11930408 -0.18262528 -0.11540547 -0.1498777 -0.042044457 -0.046148837 0.041122615 0.119854994 0.017061502 0.21965148 0.0464444 0.015597191 0.019476423 -0.036207654 -0.2857277 0.061076496 -0.06772041 -0.14525002 -0.2936449 -0.07394267 0.12156895 -0.061262645 0.030575274 0.02273767 0.056160342 -0.13585877 0.15231614 -0.056879055 0.19789176 0.08430387 0.017221835 0.047196936 0.17927648 0.06811018 -0.053341005 0.09369131 -0.114916645 0.07915941 -0.2444357 -0.07665378 -0.020030966 0.05131286 0.012649764 -0.09821048 -0.10446207 -0.32809675 -0.14244708 0.11833888 -0.01563831 0.040321622 0.003288212 -0.2486518 -0.085865565 -0.028820636 -0.01287523 -0.069438 -0.19450898 0.05121734 -0.32204503 -0.038588744 -0.016420744 0.011327742 -0.09759601 0.009343406 0.2309226 -0.029177237 -0.098810315 0.011816501 0.07652898 -0.007723451 0.045917094 -0.05531873 0.1218534 -0.0944074 -0.027041065 0.05236453 -0.025238354 -0.11796902 -0.10253516 -0.1612068 0.06812945 -0.17410189 0.021981325 -0.13327189 0.042356588 -0.09010912 0.060302746 0.0134787 -0.0056568524 0.05720583 0.09998861 -0.0387113 0.053865574 -0.049092434 -0.23028874 0.0029615813 0.20747736 -0.10124454 0.20022145 0.016282214 -0.014227838 -0.16580416 0.1734271 -0.12022178 0.07834032 -0.040376347 0.023776446 0.026089441 0.03791582 0.018376416 -0.0858021 -0.14123371 0.10512732 0.11512981 0.07591091 0.0290108 -0.007958479 0.14501758 -0.07817053 0.12836525 -0.07139897 0.062649585 0.008680503 0.13007309 -0.001451921 0.24491061 -0.0173273 -0.16736029 0.059498608 -0.029089777 -0.045842376 0.16694649 -0.040966995 0.0038780086 0.07683806 -0.02600984 -0.08188097 -0.03932732 -0.1341467 0.012358272 0.12947984 0.07458929 -0.14361598 0.106298484 0.0345189 0.107822224 -0.053363994 -0.07623126 0.15833975 -0.08428624 0.08477965 0.033969764 -0.22530274 -0.0010806015 0.118138626 -0.23437896 -0.11498165 -0.11266319 -0.2591699 0.12934275 -0.19091524 0.098673336 0.21517004 0.1064503 0.013453324 -0.19969618 -0.14672312 -0.04973485 0.068299 0.012191824 -0.027065007 0.04209717 0.13324393 0.030090246 0.026691835 -0.0414575 0.124353796 -0.21502128 0.11015081 0.14328448 -0.1708691 -0.063116916 0.18399444 0.08918355 0.14218117 0.014399776 0.1872103 -0.11630932 0.13048162 -0.07522093 -0.0430145 0.08106738 -0.14127469 0.09276298 -0.07351484 0.19939634 -0.33537573 -0.038541805 0.12720126 -0.04713099 0.029666675 -0.12860975 -0.25472948 -0.055514365 -0.16551724 0.09742544 0.29817924 0.13589926 0.0069762585 -0.050516542 0.08486888 -0.19484924 0.22777446 0.17909788 0.054132 0.10243213 -0.0074170344 0.037948944 -0.11244386 -0.15150462 0.137183 0.17174555 0.081797816 0.14636976 -0.27463567 -0.019135255 -0.050077543 0.04479954 0.018986374 -0.099316396 -0.17643906 0.10796093 0.27925715 0.17306711 0.09841298 -0.19906017 0.039993193 -0.22152406 -0.18563668 0.06586559 0.16508485 -0.06641443 -0.28536895 -0.028363748 0.17898324 -0.0807858 -0.20596553 -0.030583989 -0.1507473 0.31068367 -0.08959337 0.21216816 0.13917325 -0.19558458 0.12509102 0.017212637 0.32087272 0.11787272 -0.32918507 0.03022353 0.23349006 -0.13069214 -0.06653237 0.017200023 -0.045707278 0.031661626 0.18910146 -0.03925084 -0.06659427 0.073147744 -0.16044298 0.05100568 0.021266673 0.0074111824 0.19992316 -0.24411555 -0.12457203 -0.12099668 -0.12799919 -0.04558571 0.06449529 0.09938536 0.041696712 -0.0062106815 -0.04538468 -0.01202669 0.06895259 -0.11869618 0.22962248 -0.073801875 0.13586314 0.112134844 0.067214176 0.012228834 0.124982126 -0.22148037 -0.14031807 -0.18278189 -0.29639181 0.13778551 -0.16910829 -0.00096510677 0.09937318 -0.1562813 0.1349502 0.10176565 -0.13403955 -0.021564735 -0.0030101747 0.04729036 0.1599472 -0.021289242 0.14139888 0.092821516 0.23255111 -0.043923363 0.20963465 0.17932166 -0.06478354 -0.11293653 -0.040541522 -0.14590836 0.031518374 -0.24884245 -0.19744766 -0.11450919 0.068683 0.006415598 0.03818912 -0.1735083 -0.08673586 -0.03851855 -0.03374883 0.055599496 0.23211159 -0.04153555 -0.2502322 -0.12195872 -0.12920795 -0.018388595 0.15303864 0.04410744 -0.12031085 -0.15078151 -0.016513268 0.016991893 -0.17611103 0.05336223 -0.18873465 -0.21344979 0.28996807 -0.018128661 0.054280903 -0.14176561 0.070573255 -0.09912504 -0.08977062 -0.037352122 0.17999709 0.16415864 0.0014992584 0.13127817 -0.20289223 0.22021173 0.057967093 -0.07582302 0.08611189 0.11127376 -0.05136499 0.22347298 0.011555191 0.036040325 0.12115586 0.044149972 -0.12510829 -0.015836926 -0.0882333 0.1165356 0.08642346 0.077266686 0.078921504 0.034551084 0.06771144 0.083684534 -0.021578196 -0.0994394 -0.07903982 -0.16026759 0.046509236 0.15974452 -0.06518716 0.016317388 -0.17951469 0.08746476 0.13025968 0.15168065 -0.12099485 0.14795746 0.035932947 0.005822771 -0.19389203 -0.15955323 0.04366838 0.18798126 -0.20221464 0.002412588 0.10809091 0.05947145 0.16174841 0.04799319 0.05814923 0.036276363 0.002271393 0.16512793 0.02760301 -0.16770819 -0.002303614 -0.053196535 0.10589598
28 0.19124366 0.14103328 0.16811661 -0.053057972 -0.09300863 -0.089836776 -0.06942183 0.14076015 -0.07544729 -0.03202875 -0.008988875 -0.0083535975 0.026650257 -0.026550237 0.056108743 -0.015848475 -0.13568549 -0.00042545548 0.033475757 -0.14461388 -0.08784172 0.016009169 0.018250775 0.005897731 -0.16379876 0.08021895 0.030822296 0.025099495 0.005656768 0.009457283 0.051063422 0.011416455 0.12595636 0.06989841 0.04707775 0.17108905 0.1268534 -0.09435438 -0.0665428 -0.14606626 -0.050192546 -0.017291429 -0.011671113 -0.121744506 -0.16497926 -0.08738445 -0.102068655 0.018377565 -0.00759742 -0.10954547 -0.09210959 -0.020524768 -0.07299508 -0.056088082 0.15345351 -0.044414088 -0.06229753 -0.036974635 -0.0426121 -0.016052999 0.013461737 -0.020485869 0.022972776 0.036180884 0.08372083 0.16766442 0.050805517 -0.12726974 -0.044270147 0.007251063 -0.09313751 -0.0019326813 -0.019236743 -0.06349005 0.08493773 0.0783526 -0.034947705 -0.097933844 0.050423186 0.06417151 0.07847094 0.10488007 -0.034708567 0.1380201 -0.07945449 0.025416221 0.03405851 0.1589448 0.10069817 -0.010095107 0.112743765 0.11031975 -0.029371504 -0.091770895 0.0033161752 -0.048585556 -0.05548083 -0.033398613 -0.017110884 -0.11796463 -0.0016988621 0.07842924 -0.12755343 0.07729539 0.035531893 -0.028297467 0.1420028 0.11166919 -0.020155126 0.073482394 -0.05635036 -0.08418787 0.039056104 -0.0034251218 -0.06544062 0.027787989 0.01665629 -0.1522204 0.06311884 -0.13958594 0.03814505 0.021238515 0.09616686 -0.071529105 -0.10072148 -0.054507762 -0.2192523 0.056841277 -0.051165245 0.030141387 0.15472627 -0.006626817 0.04252807 0.091549456 -0.02319764 0.11672055 0.07962061 -0.054085836 -0.09773036 -0.10811922 -0.022066293 -0.07500077 -0.025389967 -0.028059887 0.13440406 0.05333686 0.07028459 -0.08575439 0.15955448 0.0579921 0.0085518425 -0.089448735 0.07996201 -0.023367176 -0.058695097 -0.026760785 0.08047383 -0.07368086 -0.21908194 0.026037153 -0.02342785 -0.045800317 0.05196578 -0.15343639 -0.03520433 0.08112752 0.10950608 -0.017331438 -0.0842827 0.065359436 0.006066685 0.083304845 -0.05491154 0.19103788 -0.04652416 -0.13447978 0.085555665 0.004097343 -0.03308635 0.028285569 -0.061838172 0.14895768 -0.1046646 0.08104401 -0.013870668 -0.11263144 -0.014122685 -0.001831787 0.07615795 0.09522264 0.14027435 -0.05380705 -0.04943239 -0.051397216 0.012309842 -0.07023281 0.014579457 -0.029955951 0.07420441 -0.0024709287 -0.04926773 -0.06220125 0.056656472 -0.21001394 0.21410206 0.008996142 0.06405273 0.009853629 0.040066425 -0.018213911 0.0011295261 -0.12411516 -0.08408218 -0.04182829 0.013788611 -0.08568485 0.08742844 -0.046658527 -0.08049722 -0.09599692 -0.11369399 0.046465088 -0.00066864374 -0.05936773 -0.01935558 0.035623062 0.024650514 -0.03367724 -0.15786856 0.07096008 0.040918484 0.0055743153 -0.05507863 -0.04944619 -0.18453018 -0.1091296 -0.1888174 -0.09658425 0.060415477 -0.06368375 0.030529156 -0.078854665 -0.053954996 0.13031504 0.04143581 -0.12013533 -0.02447789 -0.08775754 0.03607736 0.11287532 -0.048590895 -0.09860054 0.2252779 -0.061038367 -0.09518566 0.0036460815 -0.10087404 0.18168059 -0.044457916 0.011822711 0.054947887 -0.11483829 -0.023066418 0.023534395 0.08801797 0.12458671 -0.01957325 0.16330342 -0.053707432 0.009811557 -0.019697098 0.14843072 0.16315372 -0.17696217 -0.0100212805 -0.017338408 0.12917316 -0.15472475 -0.10094443 0.030095177 -0.061286014 -0.054430082 -0.121243395 0.07897335 0.12520815 -0.11283099 0.18170686 -0.030301275 0.08361251 0.06669109 0.018545363 0.124933876 0.042043783 0.019276354 0.16568635 0.14846386 0.18696077 -0.042459387 0.07307209 -0.03630657 -0.13344604 0.17893367 -0.121746145 -0.09273631 0.01752791 -0.0064260853 0.023194678 -0.0007869402 -0.057508513 -0.04536878 -0.04396691 -0.07375316 0.021910872 0.019737676 0.04522198 -0.0210054 0.074258395 0.037981294 0.0012155004 -0.15096076 0.14211512 -0.08951539 0.08823865 -0.04401564 0.04827022 -0.078501105 -0.059391014 -0.19774947 0.0010223361 0.062915586 0.21211593 -0.07657647 0.25061867 -0.067048304 -0.07673555 -0.0032661792 -0.09546036 0.24363753 0.0037360976 -0.13030528 -0.082603484 0.08516227 0.13317351 -0.05731994 0.05439416 0.061750945 -0.059653345 0.08051795 -0.026490485 0.116194785 -0.036160212 -0.07693067 -0.14495346 -0.006364361 -0.01247879 0.12640248 -0.057106044 -0.019440122 -0.09614389 0.03647796 0.00729152 0.20643866 0.12784748 0.18009634 -0.03875196 -0.13422002 0.04730967 0.14979093 0.03344867 0.1363623 -0.025445316 -0.050801005 0.12580095 0.20651612 -0.07806665 -0.07728635 -0.14989337 0.033939023 -0.15506698 -0.046748832 0.0895804 -0.09517423 -0.054046825 0.14568952 -0.01992413 -0.015074939 0.23029281 0.03502368 -0.027234582 -0.06694159 0.07503405 0.14266452 -0.15420076 0.058649547 0.08285263 0.0898095 0.009510202 -0.18086699 0.03271618 0.06256981 -0.018253498 0.04683687 -0.0638084 -0.102193415 0.0999632 -0.0882639 -0.04147479 0.043000262 -0.09513716 -0.015498535 0.030809028 -0.15763146 -0.060790636 0.0038185567 0.06140814 0.08792648 0.15846446 -0.23445939 -0.10576657 -0.21018293 0.15976688 0.1630186 -0.0868068 0.07507646 -0.04031355 0.14360079 -0.06276707 0.06280115 0.06969847 0.0059892857 -0.25350866 0.11767952 -0.114244245 -0.07950611 -0.11169552 -0.002800199 0.006824364 -0.011113734 -0.03375449 0.065305285 -0.050470896 -0.08909358 0.17910762 0.04212619 0.08944418 0.11373445 -0.11415204 0.07445602 -0.04771892 0.008754421 0.008776925 0.062841564 0.1447189 -0.04851673 0.0870513 -0.2737724 0.015549359 0.11432342 0.029463291 0.012789644 -0.027727691 -0.10088781 0.09744008 0.09751496 -0.09611304 0.07369422 -0.0154967755 0.032207772 -0.14069413 -0.01314278 -0.07756458 -0.057851758 -0.06483863 -0.15486927 -0.051983964 0.042383138 0.00580725 0.18248487 0.032047253 -0.1579015 -0.11383953 0.0042267917 -0.026453178 0.083355635 0.15689364 0.106577925 0.04576965 0.13817947 0.1346796 -0.076255575 0.045811117 0.012801864 0.024838518 0.13069502 -0.010546736 0.059093826 -0.09547891 0.04022764 -0.061534826 0.06612199
30 0.25884494 0.17691389 0.30689424 -0.071399435 -0.16711256 -0.13042952 -0.12789778 0.23848836 -0.059324693 -0.072578385 0.096829705 -0.029224737 0.044669464 0.06252075 0.09427827 0.063135214 -0.14278238 -0.023355674 0.032657623 -0.17655568 -0.10361321 0.034773327 -0.011322895 0.039683446 -0.18527667 0.04769365 0.09788981 0.02427166 -0.041150022 0.056756992 0.109757826 -0.0358018 0.16227911 0.16493656 0.025433566 0.2514966 0.19330445 -0.12069763 -0.2000914 -0.14991379 -0.12551573 -0.036519084 -0.15840052 -0.06393597 -0.15722798 -0.08126014 -0.109093376 0.009047428 -0.07956296 -0.027330888 -0.043389022 -0.029060148 -0.13990237 -0.046400815 0.14789337 -0.0715939 -0.045897342 -0.17184822 -0.030514171 0.007922417 -0.036439214 -0.0341097 0.004769624 -0.06342423 0.00079717534 0.16901065 0.026279524 -0.090221785 -0.051033024 0.07108422 -0.013568651 0.06798877 -0.07754159 -0.05563155 0.124891855 0.10097469 -0.041022457 -0.12545955 -0.002159579 0.046950564 0.04982568 0.119781025 -0.004930043 0.16299818 -0.092347845 0.068991385 0.00621718 0.16291992 0.11574789 -0.03326783 0.1086258 0.0941426 -0.0004787473 -0.012451415 -0.013329811 0.00751465 0.0043817875 0.020089865 -0.0022581352 -0.095215335 0.0008990768 0.11086978 -0.09978084 0.07801018 0.023953713 -0.0043725227 0.11839373 0.14269322 -0.037598953 0.091246635 -0.087658726 -0.045766197 -0.035318088 0.046679094 -0.11115112 0.038043473 0.07186368 -0.15707329 -0.0040875333 -0.13315587 0.001199474 0.026910162 0.12640923 -0.071604654 -0.04202421 -0.022535142 -0.215488 0.051957056 -0.06686581 0.049063142 0.16038153 -0.04732253 0.060089786 0.048473187 0.050898857 0.1543786 0.072325155 0.024697606 -0.13369872 -0.10072102 -0.039364632 -0.07950002 -0.030227475 -0.017798832 0.060113955 -0.03044132 0.11915519 -0.0057158745 0.11580329 0.12235018 -0.055006735 -0.14560169 0.051515933 0.009259803 -0.08020683 0.0054624714 0.061307866 -0.06328611 -0.1812094 0.11466454 0.015570302 -0.026215348 0.09245497 -0.12773573 0.013668742 0.12612483 0.17505266 0.052881412 -0.0519235 0.0645001 0.021948585 0.120094195 0.026051693 0.15991776 -0.048372153 -0.083941735 0.01084213 0.010118574 0.030559031 0.023777816 -0.09413569 0.14096211 -0.047583032 0.009639248 0.007209522 -0.14413452 -0.023475347 -0.022173448 0.06901724 0.1277007 0.12633418 -0.05893089 -0.020357748 -0.020500267 -0.016176939 -0.08935717 0.027284708 -0.030423347 0.060117874 0.060726386 -0.06091497 -0.090757445 0.09473573 -0.15369588 0.20870689 -0.030264093 0.09296207 0.024440419 -0.018349769 -0.06670887 -0.06558033 -0.096246846 -0.09742998 -0.030641275 -0.03209078 -0.1267162 0.06774696 0.032572996 -0.1124039 -0.0992038 -0.13168016 0.086367786 -0.026020145 -0.050206706 -0.036267556 0.043046962 -0.022806654 -0.06179575 -0.13286676 0.11132527 0.1056377 -0.022776594 -0.09285851 -0.041726205 -0.2110411 -0.08041131 -0.16351682 -0.074801 0.08570008 0.0023463021 0.06447127 -0.035835624 -0.02414335 0.14817522 -0.036851652 -0.11661359 0.06132472 -0.14030871 -0.014647101 0.095517725 0.019644076 -0.10013301 0.17412409 -0.121989585 -0.14754789 -0.09249448 -0.09107959 0.1679261 -0.0344865 -0.0050384817 0.019062197 -0.06884698 0.06741613 0.03268851 0.07492106 0.090555586 0.08086871 0.15987124 -0.07560521 -0.012596855 -0.022702038 0.16507691 0.19962339 -0.17904189 0.002109703 0.060040195 0.13786143 -0.1160666 -0.13721135 0.039580014 -0.1408713 -0.07871423 -0.10941243 0.10513626 0.106628604 -0.11585687 0.18765856 -0.03025278 0.03104433 0.09419112 -0.05680766 0.20407908 0.11801605 0.043778945 0.14816497 0.08607403 0.14622012 -0.018086996 0.09703171 -0.01795059 -0.15248904 0.2124242 -0.12702918 -0.14509875 -0.0009696984 -0.048066285 0.0021457532 -0.031170852 -0.0908531 -0.011616611 0.010820065 -0.0903516 0.007988129 0.01992773 0.06813207 0.032105174 0.08261816 0.028697347 0.10453605 -0.22879955 0.20256783 -0.09251799 0.08783717 -0.03181721 -0.028038837 -0.052613445 -0.018219214 -0.20729226 -0.0011084281 0.012552954 0.33229318 -0.095169805 0.29169187 -0.063379474 -0.020407043 -0.08046176 -0.13771133 0.24886306 -0.0035024474 -0.098466985 -0.084227875 0.053595793 0.17857803 -0.023053437 0.057779904 0.03477669 -0.02833958 -0.021240393 -0.049530465 0.14760529 -0.02463176 -0.016857535 -0.1647889 0.03736744 0.002962478 0.20806813 -0.070834704 -0.03815543 -0.005305775 -0.008748532 0.05583278 0.2430241 0.13634925 0.19181183 -0.01369714 -0.12357316 0.12547447 0.16817397 0.022670604 0.14536305 0.009721367 -0.15304664 0.024579877 0.22000283 -0.11929786 -0.0730176 -0.15313827 0.0472979 -0.17884754 0.020160466 0.04462922 0.0031153932 -0.069634244 0.1495375 0.021998707 -0.086476974 0.2316772 0.1085434 0.01561454 -0.09961642 0.0401558 0.023593333 -0.21322194 0.055979468 0.08022313 0.091475114 0.10981917 -0.19482808 -0.060194 0.106093556 -0.02048066 0.05719649 -0.09724898 -0.085652955 0.102484114 -0.10643914 0.00017019799 0.07907016 -0.11912082 -0.053303923 0.053380977 -0.1242348 -0.064757235 0.033459835 0.020609178 0.13481285 0.24947235 -0.20177306 -0.11545031 -0.2065072 0.21079016 0.16202277 -0.12382429 0.010048062 -0.051831 0.16869189 -0.026604595 0.023534255 0.048042465 0.034120757 -0.2810504 0.12152898 -0.1853771 -0.07010465 -0.11831052 0.035475943 0.059621 -0.010735204 -0.08979685 0.10609816 -0.06914916 -0.10914982 0.18600132 0.074211664 0.08719132 0.0773583 -0.1228071 0.026845673 -0.035621673 -0.04267022 0.06123958 0.10541895 0.17470442 -0.12173387 0.059280224 -0.32846415 0.015958926 0.13885324 0.009762682 0.031608474 -0.025080025 -0.17778137 0.14125812 0.04405439 -0.03042331 0.08410961 0.026112296 0.06732863 -0.19381823 0.014790993 -0.13038728 -0.2025178 -0.13004582 -0.17732756 -0.08018089 0.06716896 0.029558731 0.30724743 0.03761663 -0.20012273 -0.20240112 0.004168041 -0.018418172 0.08672112 0.1584295 0.08155416 0.08715077 0.11006823 0.13175544 -0.15361159 0.12110154 0.012435746 0.0035526573 0.13318956 0.013286249 0.072669186 0.017914873 0.07604406 -0.035988368 0.09654173
9 0.08078066 0.10928653 0.1249874 -0.06544153 -0.08331569 -0.05426607 -0.04239991 0.15692261 -0.0147053925 -0.0439098 0.041874137 -0.019856486 0.04248452 0.013447137 0.043365758 -0.052530605 -0.11889671 -0.09827086 0.032850903 -0.017700916 -0.1231047 -0.01645708 0.0018434816 0.044502467 -0.0809498 -0.031559493 0.047759056 0.0016526624 -0.055311885 -0.0035611284 0.094552584 -0.07576915 0.07166434 0.09211932 0.052339293 0.19165869 0.1676201 -0.06291125 -0.094948396 -0.062316936 -0.057426244 -0.075738065 -0.20470285 -0.04160565 -0.17245293 -0.08611069 -0.041653343 0.05281186 -0.06429851 -0.0074177184 -0.01657694 -0.0737342 -0.05856893 -0.023223044 0.06412897 -0.0136241885 0.028901447 -0.107700646 -0.041855115 -0.029872077 0.061778 -0.037457053 0.1030028 -0.12448762 -0.05549862 0.088900365 0.008195595 -0.058402944 -0.07224912 0.04499878 0.052273523 0.05328569 -0.01459255 0.010211071 0.11595731 0.13014491 -0.07019395 -0.10455083 0.0012391589 0.10835693 0.019063137 0.033163734 -0.024477009 0.04181209 -0.10729969 0.018194208 -0.026676556 0.115695864 0.084199585 -0.0051126927 0.12230169 0.068912156 0.00047455227 -0.0045792684 0.007848179 -0.04038314 0.031249905 -0.02735424 -0.06563026 -0.14366148 -0.053414345 0.08328265 -0.042426977 0.08410133 0.020427313 0.016805751 0.012108732 0.11918312 -0.031587813 0.09135702 -0.0049348213 -0.023885392 -0.005934498 0.0967687 -0.0650947 0.008555128 0.100067265 -0.11850005 0.016491069 -0.13872902 -0.05609666 0.03269741 0.10596682 -0.048613705 -0.025274867 -0.004006608 -0.19881676 0.01944765 -0.008537436 0.029117856 0.13130674 -0.013357076 -0.033237644 -0.017143944 0.014032894 0.08766916 0.014719605 -0.07388985 -0.07381782 -0.18255517 -0.033218015 -0.060561176 0.0006386295 -0.057787955 0.023470657 0.048300266 0.039503984 -0.058821183 0.029216997 0.050590873 -0.032661453 -0.06519841 -0.003752975 0.07024081 -0.0835798 -0.024219127 0.0318196 -0.042314254 -0.143844 0.050043687 -0.031238431 0.0032377418 0.011079275 -0.057052385 -0.021763846 0.074199766 0.06220241 0.04416604 -0.010518867 0.03764224 0.027217655 0.11954204 0.0082310485 0.11655568 -0.013863822 -0.102313675 -0.0022454741 0.056411415 -0.010003281 0.065674625 -0.03354056 0.07106824 -0.04746573 0.025538363 -0.036955148 -0.045444153 -0.034937426 -0.024075642 0.018129056 0.081036866 0.09286507 -0.06301034 -0.0548123 0.022460857 0.03062383 -0.04330322 0.008501811 -0.03449836 0.07909585 0.031301677 -0.0024421709 -0.07405033 0.070681594 -0.068695 0.14213848 -0.023063144 0.11060185 0.018156342 -0.04659733 -0.04689549 -0.027175708 -0.029776707 -0.0025187156 -0.026896147 -0.013763395 -0.04200734 0.04049466 0.009647397 -0.05768039 -0.099727646 -0.064681455 0.07199844 -0.028389456 -0.076192945 0.012137848 0.031201463 -0.0001831663 -0.0545098 -0.096565396 0.11544939 0.02948219 -0.0018213124 -0.06588024 -0.10197967 -0.07931855 0.014572575 -0.14673966 -0.07844231 0.012162011 -0.047625378 0.09424927 -0.08660104 0.016473409 0.10809364 0.0082783215 -0.0621578 -0.018357309 -0.08818469 -0.017418183 0.07124314 0.027874159 -0.04116473 0.10995236 -0.010267986 -0.07238811 -0.029243112 -0.051873595 0.1260828 -0.065653265 0.033573978 0.045673016 -0.07428869 0.042563435 0.086899 0.07737831 0.10752275 0.06985589 0.1355642 -0.07550583 0.023285845 -0.016348518 0.06926328 0.131001 -0.12893829 0.030013181 0.02018608 0.104006544 -0.12404363 -0.0628108 0.032280475 -0.12393343 -0.035873078 -0.089370124 0.0068894727 0.043324117 -0.07176758 0.14375702 0.0641258 0.07580714 0.06634906 -0.059960786 0.13271613 0.0009420546 0.09194229 0.101891786 0.04439762 0.0752502 -0.02952165 0.08410361 -0.056586314 -0.11173773 0.13729608 -0.017427541 -0.054146707 0.027483085 -0.12509981 -0.0046956656 -0.026966529 -0.062265426 0.028056627 -0.030259054 -0.09444866 0.052218646 0.09196408 0.10966849 0.07440517 0.0026646205 0.0044921404 0.017925113 -0.17803635 0.15276933 -0.0062314235 0.043622985 -0.08696281 -0.024427192 0.03637059 -0.015758907 -0.15818715 0.0092843305 -0.048674513 0.28546682 -0.07853728 0.173435 0.005806772 -0.046037596 -0.005877405 -0.050263602 0.19278719 0.016571391 -0.13550645 -0.051013697 0.073231556 0.059860166 -0.012231557 0.03346242 -0.012357553 -0.011803704 0.03458721 -0.06692036 0.043499533 0.021186037 -0.01892227 -0.07346498 0.009403087 0.006692492 0.16376871 -0.0913721 -0.04371915 -0.014842445 -0.071368776 -0.008378067 0.11929733 0.10829936 0.10847256 -0.012524356 -0.029228758 0.07458698 0.10578587 -0.007685902 0.109263085 -0.0056616743 -0.045996055 0.013620026 0.12518731 -0.05811816 -0.0058050174 -0.14008924 -0.014395984 -0.13580129 -0.05599014 0.052512962 -0.04269533 -0.021579122 0.089136645 0.0036155898 -0.006882355 0.12533654 0.010673429 0.015293055 -0.028105585 0.025459874 0.022772454 -0.10331064 0.034405224 0.089381754 0.09798212 0.07439589 -0.045941044 0.008006979 0.03412882 -0.038431704 0.008239784 -0.08095302 -0.014871594 -0.022718277 -0.10783667 -0.023658574 0.07583327 -0.045026004 -0.03731256 0.0041159196 -0.06041325 -0.046191156 0.012830045 -0.008696024 0.12772357 0.11894214 -0.14359279 -0.07905751 -0.117874734 0.09265743 0.123418875 -0.07723212 -0.038213465 -0.054847658 0.08376907 -0.0044354172 -0.032395415 0.027170474 -0.024207624 -0.16850919 0.13114627 -0.10105208 -0.0028901538 -0.11019999 0.04789678 0.033092633 -0.016695654 -0.03961029 0.09227159 0.018543726 -0.046796326 0.12620094 -0.014783444 0.110472515 0.022588776 -0.06917948 0.026706612 0.02258952 -0.024995577 0.05789877 0.066062085 0.07042407 -0.031322077 0.063143246 -0.17643465 0.02169801 0.05598882 0.044544164 0.023725145 -0.0046157655 -0.08212457 0.098387696 0.014327343 -0.0023812652 0.028054828 -0.009981394 0.0059756907 -0.10865881 0.0319543 -0.013102626 -0.12909842 -0.059140008 -0.10764975 -0.016283073 0.08047651 0.05904788 0.12853469 0.045627143 -0.079489596 -0.075602144 -0.040299885 -0.06625082 0.068846054 0.12848185 -0.016109457 0.04420051 0.075234026 0.05576596 -0.01962303 0.060734607 0.03477536 -0.0048585995 0.06593808 0.06542958 0.042386547 -0.023889568 0.057895657 -0.0058304435 0.073109835
8 -0.026960157 0.11941446 0.013268497 -0.05114642 -0.024490923 -0.0041202693 0.010156264 0.091613255 0.011345923 -0.016643636 -0.061893344 -0.005894302 -0.0066431095 -0.1134965 0.033774294 -0.17827623 -0.16431426 -0.15149286 0.06753931 0.042352654 -0.17900257 0.021470476 0.025039304 0.06485242 -0.034303218 -0.06493585 -0.026102955 -0.028178748 -0.077297054 -0.03694783 0.056107584 -0.107872285 0.023103524 -0.031054802 0.077542715 0.16744684 0.14309609 -0.003304142 0.022837777 -0.017653009 0.024698539 -0.103040405 -0.18293597 -0.04114524 -0.19760376 -0.0933113 -0.03153627 0.09422133 -0.030163676 -0.052248098 0.010107127 -0.09708041 0.013151528 0.043377668 -0.017345283 0.05978396 0.116123185 -0.06640301 -0.09507355 -0.07392596 0.15034428 0.00391269 0.18916667 -0.13663636 -0.03192793 0.10668611 -0.0027582608 -0.07935444 -0.10332969 -0.037291568 0.0656764 0.07214596 0.07933404 0.02560995 0.1831327 0.18625718 -0.10235965 -0.087457545 0.026804574 0.17388785 0.011845938 -0.0076283165 -0.035863284 -0.010774693 -0.16008589 -0.023063878 -0.05606606 0.1949411 0.09203439 0.03583853 0.21775603 0.102182776 -0.05592466 -0.06652396 0.06658258 -0.054096296 -0.005122789 -0.10202191 -0.17058234 -0.24840176 -0.11512517 0.05749124 -0.011016805 0.14440243 0.027516978 0.029450791 0.01594966 0.1079108 -0.01867715 0.12489823 0.05978138 -0.082697414 0.046242718 0.15490475 -0.07968806 -0.014012305 0.11753203 -0.14754814 0.06877379 -0.22300604 -0.08965824 0.096473426 0.17363653 -0.063749194 -0.0102581065 0.029973075 -0.23286715 0.04911889 -0.001243442 0.046352196 0.20514059 0.06569069 -0.07901785 -0.025800357 -0.05952847 0.09923565 0.008476478 -0.22089812 -0.09357312 -0.32624546 -0.039544478 -0.11810138 0.025263188 -0.13560641 0.07119984 0.17540565 -0.025296224 -0.1870316 0.012255953 -0.034353424 0.014560344 -0.033322077 -0.036383264 0.118961975 -0.15189528 -0.096647635 0.040936746 -0.06560667 -0.22745872 -0.013857875 -0.09303216 -0.02791836 -0.033461828 -0.05165959 -0.037033882 0.016228773 -0.027729673 -0.010073936 -0.012565704 0.05514459 0.031178774 0.16798203 -0.059250705 0.17295392 0.033286266 -0.16578673 0.03878574 0.060221024 -0.06851848 0.10284239 0.05065831 0.033583317 -0.07452377 0.023519848 -0.097600155 0.018587204 -0.028257638 -0.033164773 -0.040789116 0.070048615 0.16376927 -0.089911945 -0.10980607 0.002915368 0.047191933 -0.043527193 -0.008126948 -0.06074561 0.12889607 -0.020306665 0.034591563 -0.05965307 0.0393202 -0.09356275 0.16788946 -0.00947827 0.104710005 0.025776519 -0.006343365 -0.052492533 0.03902579 0.007215475 0.06805714 -0.045026857 0.05000956 0.03237894 0.05169341 -0.044526357 -0.018409746 -0.14594275 -0.034116577 0.053086802 -0.045034982 -0.13884875 0.051010985 0.033659235 0.017460017 -0.04506854 -0.14655262 0.12895077 -0.05108972 0.04447487 -0.072114214 -0.18603715 -0.013440423 0.043163437 -0.20116483 -0.107929766 -0.04439336 -0.09421281 0.16790642 -0.18206784 0.0083663305 0.072555184 0.12727684 -0.07800694 -0.10578762 -0.029606277 0.028926888 0.11069238 -0.01431437 0.014849046 0.15959571 0.08803578 -0.030613968 0.063702196 -0.032138057 0.13096584 -0.061327267 0.08828157 0.1290581 -0.08560188 0.0037402175 0.10217574 0.12539169 0.17570202 0.014995981 0.15528195 -0.09847192 0.04252129 -0.0031625961 0.011481623 0.0984194 -0.12602375 0.04094497 -0.019569036 0.0821326 -0.14465724 0.0016341817 -0.008915065 -0.13192095 -0.01363171 -0.1105431 -0.021516433 0.07279175 -0.02180178 0.18501 0.0926248 0.16964923 0.033724453 -0.019643113 0.051299114 -0.09379083 0.1158733 0.09155758 0.06593273 0.07575103 -0.08699583 0.102068804 -0.119344674 -0.07755805 0.102818385 0.008432233 0.01047653 0.022204783 -0.16528574 0.0074146627 0.0095805805 -0.07789791 0.031085756 -0.084827095 -0.07967293 0.10814288 0.124261014 0.1399503 0.06287179 -0.012350543 -0.031200422 -0.04222857 -0.107557066 0.09707664 0.011286704 0.074861564 -0.09853119 0.0368159 0.06517832 -0.015159039 -0.15279697 0.046590462 -0.06748216 0.22774594 -0.09429548 0.109854504 0.030283457 -0.07726874 0.085399956 0.017318938 0.18556507 0.0063742674 -0.18643805 -0.042659286 0.1044449 -0.037112996 -0.042152278 0.03155351 -0.029325703 -0.03217559 0.13476066 -0.10240268 -0.03978735 0.027114863 -0.019559665 -0.05456781 -0.04935776 0.015128517 0.103863336 -0.09102977 -0.0397356 -0.027823221 -0.100663 -0.107566185 0.018365508 0.097921886 0.0855533 -0.050115485 0.067725874 0.024194645 0.058684073 -0.010780114 0.08661254 -0.05655614 0.053311132 0.060661174 0.12281805 -0.031455833 -0.019465672 -0.16726021 -0.046272848 -0.12053653 -0.106081575 0.08931858 -0.13379759 0.050712347 0.09089022 0.015709443 0.07043081 0.07529971 -0.09432059 -0.0056465436 0.052824277 0.02893031 0.05359626 -0.04704796 -0.006630377 0.13999525 0.1215045 0.038523465 0.028757606 0.059667848 -0.013842443 -0.07642914 -0.052107397 -0.0664523 0.0469892 -0.07838324 -0.14178646 -0.069569185 0.09208291 0.0044555794 -0.04435343 0.018630596 -0.04990932 -0.046021633 -0.014376181 -0.009312825 0.08956344 0.04835519 -0.16014864 -0.051846903 -0.06889899 0.016097238 0.12031606 -0.091890514 -0.0043658926 -0.02760014 0.043852698 -0.044359796 -0.020925412 0.028610427 -0.06151896 -0.08740022 0.16195184 -0.040176176 0.021735206 -0.16564128 0.06010276 -0.015273503 -0.02430891 0.014931921 0.047166485 0.07313759 0.006011214 0.11154711 -0.06707888 0.14368588 -0.0066173724 -0.02465677 0.030235771 0.05820649 0.042561296 0.0011556114 0.036921043 -0.017129451 0.08082041 0.12338908 -0.113574825 0.05126317 0.008848603 0.115202956 0.001319294 0.0020238373 -0.022687746 0.1054732 0.0033625634 -0.09299343 -0.007536333 -0.082101636 -0.07270975 -0.0122677535 0.050857026 0.070654266 -0.029347613 -0.003996187 -0.08163074 0.032985225 0.10043878 0.07315486 -0.010055347 0.038667236 -0.028269952 0.05911085 -0.06875541 -0.12792869 0.09332646 0.11791217 -0.0431479 -0.0013027207 0.09784203 -0.012809089 0.11135426 -0.030483976 0.036322758 -0.023239644 0.049127318 0.10073056 0.017710423 -0.098346725 0.060679115 0.022244932 0.0020540336
11 0.023937777 0.13466613 -0.06972453 -0.19127366 -0.059217665 -0.05807532 0.033252195 0.3291478 -0.03622594 -0.022739723 -0.022724994 0.038652074 0.13874899 0.003492525 0.014181718 -0.23351876 -0.12083983 -0.20123173 0.027085215 0.17027652 -0.07993665 -0.12536028 0.041683435 -0.0027151783 0.021624817 -0.09814302 0.037232567 0.018419916 -0.04778004 -0.06500543 0.14179994 -0.05333809 -0.012910099 0.061652128 0.1634941 0.16426986 0.14443329 -0.034421436 0.05714313 -0.054469235 -6.169992e-05 -0.11677395 -0.19796678 -0.0884981 -0.22779724 -0.09337715 0.041839223 0.12383795 -0.06466675 -0.023500964 -0.03481851 -0.14345069 0.036534905 -0.11134241 0.11213199 0.054649483 0.051677756 0.097408816 -0.02171547 -0.09864693 0.26620317 -0.10445942 0.22650063 -0.17662616 -0.13041832 0.04357741 0.030062672 -0.06362639 -0.13254829 0.08780354 0.05147864 -0.095072754 0.067007594 0.077371925 0.07756472 0.19665842 -0.12266282 -0.11512723 0.059323356 0.28433305 0.08363604 -0.0955634 -0.15562548 -0.08074321 -0.12800117 -0.023803715 -0.03721401 0.048024084 0.113440074 0.0033060298 0.18930891 0.04676396 0.01675575 0.011553551 -0.03280158 -0.2461233 0.052039545 -0.061603736 -0.120870695 -0.2509164 -0.06316836 0.11679052 -0.067766786 0.029782685 0.017537592 0.043127455 -0.09714385 0.14265607 -0.045369826 0.17799872 0.058372524 0.0062018204 0.036779728 0.14968331 0.05067444 -0.04207235 0.080029026 -0.10945298 0.07099437 -0.2131399 -0.058878627 -0.016834842 0.045974705 0.010916573 -0.09729411 -0.09356111 -0.29280242 -0.11607257 0.09679904 -0.013441149 0.04390355 -0.004999382 -0.20479392 -0.055941865 -0.026587773 -0.0078440625 -0.042680625 -0.15859964 0.034131717 -0.26779792 -0.031652335 -0.014609289 0.0012857387 -0.08586956 0.01246507 0.1955684 -0.016058752 -0.0827321 0.03153295 0.07661432 -0.013036374 0.026504878 -0.03489718 0.09076874 -0.08356325 -0.016694512 0.052843552 -0.03560916 -0.11820458 -0.08006059 -0.13706286 0.053846113 -0.13743988 -0.0025036687 -0.11552564 0.046777386 -0.05676393 0.054684207 0.0002805975 0.002008445 0.051191214 0.08925034 -0.03563035 0.0595375 -0.04911249 -0.2009805 0.012238087 0.17574324 -0.09278422 0.1703736 0.004400666 0.0026701284 -0.14393915 0.15695004 -0.09755676 0.045818195 -0.033317037 0.02159589 0.03273872 0.034256563 0.02174378 -0.07295103 -0.11786056 0.08628527 0.09338895 0.055362612 0.031265374 -0.005353484 0.1293944 -0.057754952 0.09935615 -0.06468476 0.06396863 -0.010351964 0.13065112 -0.008398909 0.21343257 -0.013491389 -0.13201603 0.04414212 -0.020844936 -0.047353536 0.12207256 -0.029814731 0.0055563874 0.056820944 -0.016159054 -0.068004064 -0.044481926 -0.11920121 -0.009713286 0.11120826 0.05944068 -0.11766208 0.082285665 0.0323554 0.093096234 -0.04953029 -0.07172208 0.14177614 -0.05744305 0.07006488 0.02066976 -0.18338113 -0.026617538 0.083355576 -0.20559298 -0.10021053 -0.084670745 -0.21754079 0.10823643 -0.15602888 0.07932568 0.1922239 0.0859858 -0.00056956796 -0.15959333 -0.13339835 -0.036961824 0.068300694 0.0020826953 -0.029778231 0.053214878 0.10413851 0.012066164 0.018933047 -0.048935793 0.11865916 -0.18352446 0.08938795 0.1216332 -0.15425298 -0.049806345 0.15845524 0.083078675 0.12086123 0.0150008 0.16761346 -0.10168745 0.11254162 -0.060618438 -0.019906817 0.082608126 -0.13889813 0.07661209 -0.05469806 0.17689858 -0.29222718 -0.0451036 0.11569169 -0.041406937 0.017330263 -0.11579517 -0.20825993 -0.036073133 -0.15037692 0.09035888 0.252478 0.1201451 0.013440732 -0.03911271 0.08784453 -0.15404479 0.18995719 0.1632723 0.058213554 0.09981778 -0.009857316 0.03248975 -0.085730836 -0.13933393 0.13656807 0.12978506 0.04854654 0.12376487 -0.22426765 -0.014912038 -0.046542708 0.038572095 0.012057784 -0.07911596 -0.15491405 0.089875 0.23241207 0.13896969 0.08055628 -0.16182387 0.042079464 -0.1843578 -0.17948999 0.06898902 0.13274778 -0.051039573 -0.24118783 -0.026626315 0.14660555 -0.06854108 -0.19493943 -0.02767356 -0.113578476 0.27722293 -0.08482416 0.20061328 0.10667651 -0.16600338 0.10035472 -0.0019992937 0.28729993 0.10317176 -0.28405413 0.020480482 0.20137818 -0.09397924 -0.05576116 0.02235028 -0.03421691 0.028303225 0.14918408 -0.023598181 -0.04521718 0.05927757 -0.14285947 0.03216628 0.02610444 0.0027711375 0.17485262 -0.20408186 -0.10111521 -0.10614884 -0.09868495 -0.02775104 0.07025338 0.09475946 0.05149011 -0.0042748414 -0.05493068 -0.002899231 0.06679089 -0.09321541 0.1987055 -0.060649186 0.10442747 0.0991666 0.067582235 -0.0019808682 0.09990785 -0.19454977 -0.11067975 -0.16433194 -0.24458465 0.1120243 -0.13814895 -0.011996228 0.087795995 -0.13070196 0.09772047 0.103513636 -0.09319349 -0.019197952 -0.007930004 0.044981305 0.14429702 -0.03344766 0.120410405 0.08622852 0.19037554 -0.026698468 0.14932652 0.14608172 -0.044328764 -0.08876583 -0.018060666 -0.12744203 0.01413622 -0.18582365 -0.16601989 -0.0950132 0.05010524 -0.008525959 0.03319139 -0.14010635 -0.09083776 -0.035750512 -0.022662967 0.051644232 0.20469378 -0.020064613 -0.2170739 -0.10231601 -0.12951827 -0.0038949032 0.13756506 0.033360787 -0.0942909 -0.1287401 4.6160203e-06 0.0140249515 -0.13339078 0.048781194 -0.14991924 -0.188115 0.23843788 -0.02600652 0.042072617 -0.12211687 0.057700757 -0.07600176 -0.074972756 -0.033264413 0.15264268 0.12638621 -0.014561168 0.12303451 -0.15700029 0.1732248 0.055428613 -0.074965686 0.07702484 0.07929031 -0.047633216 0.18547803 0.018817186 0.050184917 0.084802166 0.038997006 -0.12129611 -0.009882878 -0.057082262 0.088389605 0.07257345 0.06365541 0.056685243 0.030424796 0.068002924 0.0651211 -0.014269756 -0.07533507 -0.060460534 -0.15002172 0.0309723 0.11660176 -0.06483981 0.00096595177 -0.15586703 0.06562108 0.11092073 0.11629666 -0.07651028 0.12764058 0.016590497 -0.011968719 -0.15832967 -0.12190134 0.041631117 0.16653536 -0.15266411 0.010130082 0.09275682 0.06479471 0.11195881 0.041657384 0.05131876 0.03400741 0.010193097 0.12261686 0.023748068 -0.13735394 -0.0034847772 -0.04178062 0.09384081
